{"learner":{"attributes":{"scikit_learn":"{\"_estimator_type\": \"regressor\"}"},"feature_names":["F1","F2","F3","F4","F5","F6","F7","F8","F9","F10","F11","F12","F13","F14","F15","F16","F17","F18","F19","F20","F21","F22","F23","F24","F25","F26","F27","F28","F29","F30","F31","F32","F33"],"feature_types":["float","float","float","float","int","float","int","int","int","int","float","float","int","float","float","float","float","float","float","float","float","float","float","float","float","float","float","float","float","float","float","float","float"],"gradient_booster":{"model":{"cats":{"enc":[],"feature_segments":[],"sorted_idx":[]},"gbtree_model_param":{"num_parallel_tree":"1","num_trees":"100"},"iteration_indptr":[0,1,2,3,4,5,6,7,8,9,10,11,12,13,14,15,16,17,18,19,20,21,22,23,24,25,26,27,28,29,30,31,32,33,34,35,36,37,38,39,40,41,42,43,44,45,46,47,48,49,50,51,52,53,54,55,56,57,58,59,60,61,62,63,64,65,66,67,68,69,70,71,72,73,74,75,76,77,78,79,80,81,82,83,84,85,86,87,88,89,90,91,92,93,94,95,96,97,98,99,100],"tree_info":[0,0,0,0,0,0,0,0,0,0,0,0,0,0,0,0,0,0,0,0,0,0,0,0,0,0,0,0,0,0,0,0,0,0,0,0,0,0,0,0,0,0,0,0,0,0,0,0,0,0,0,0,0,0,0,0,0,0,0,0,0,0,0,0,0,0,0,0,0,0,0,0,0,0,0,0,0,0,0,0,0,0,0,0,0,0,0,0,0,0,0,0,0,0,0,0,0,0,0,0],"trees":[{"base_weights":[2.4837007E-7,-3.3996985E0,3.451054E0,-5.862216E0,-1.5514638E0,2.1203768E-1,5.4845576E0,-7.1286345E0,-2.4620483E0,-5.631184E0,-2.6111728E-1,2.246351E0,-2.3903396E0,3.7235363E0,8.385977E0,-1.0509951E1,-6.0571218E0,-6.134205E0,9.981767E-2,-1.0952411E0,-6.9070973E0,1.2666432E0,-3.341991E0,9.408348E-1,5.956341E0,-5.244251E0,-1.0029684E0,5.140768E0,3.245266E-1,4.4063497E0,9.76184E0,-1.1884649E1,-7.8459563E0,-7.1409583E0,-2.8878746E0,-6.995477E0,-1.6696599E0,7.314063E0,-7.5981325E-1,-6.3001513E0,1.0110618E0,-7.890477E0,-1.5961756E0,2.789952E0,-9.16545E-1,-4.7079635E0,8.782305E-1,-3.4216027E0,2.2211459E0,3.1010108E0,7.827816E0,-9.357676E0,-3.7255487E0,-4.956837E0,-2.8447172E-1,-1.9990115E0,5.829684E0,5.9364886E0,-1.3966209E0,1.822122E0,7.327215E0,7.465445E0,1.1948712E1,-4.1854672E0,-2.7869353E0,-4.148783E-1,-2.6337333E0,-1.4921322E0,-2.7386906E0,-2.5239944E-1,-1.9769223E0,-2.060863E-1,-2.3032236E0,8.6585027E-1,-1.5442069E0,-3.7420276E-1,2.6181457E0,-1.5503763E0,2.0146585E-1,-2.3824074E0,-1.3342312E-1,-8.271598E-1,1.0192218E0,-1.8644677E0,-3.243275E0,3.217575E-1,-1.4496871E0,2.4659179E-1,1.6440555E0,-6.7798716E-1,4.9117604E-1,-1.9183449E0,-4.4784352E-1,-4.8297986E-1,1.324597E0,-1.4567705E0,4.7663632E-1,-1.1552129E0,8.757345E-1,4.149232E-1,1.7850739E0,1.8366159E0,3.7453942E0,-3.423054E0,-1.2950705E0,-1.8798997E0,-4.1664582E-1,1.02584E0,-1.7546922E0,4.1371042E-1,-5.886585E-1,-1.6895841E0,1.1054439E-1,1.124476E0,2.3152802E0,3.3907357E-1,2.6445343E0,-6.53976E-2,-1.5930338E0,9.082974E-1,-1.5333277E0,3.11988E0,3.830836E-1,2.5146825E0,-5.47689E-1,4.311711E0,2.9422426E0],"categories":[],"categories_nodes":[],"categories_segments":[],"categories_sizes":[],"default_left":[0,0,0,0,0,0,0,0,0,0,0,0,0,0,0,0,0,0,0,0,0,0,0,0,0,0,0,0,0,0,0,0,0,0,0,0,0,0,0,0,0,0,0,0,0,0,0,0,0,0,0,0,0,0,0,0,0,0,0,0,0,0,0,0,0,0,0,0,0,0,0,0,0,0,0,0,0,0,0,0,0,0,0,0,0,0,0,0,0,0,0,0,0,0,0,0,0,0,0,0,0,0,0,0,0,0,0,0,0,0,0,0,0,0,0,0,0,0,0,0,0,0,0,0,0,0,0],"id":0,"left_children":[1,3,5,7,9,11,13,15,17,19,21,23,25,27,29,31,33,35,37,39,41,43,45,47,49,51,53,55,57,59,61,63,65,67,69,71,73,75,77,79,81,83,85,87,89,91,93,95,97,99,101,103,105,107,109,111,113,115,117,119,121,123,125,-1,-1,-1,-1,-1,-1,-1,-1,-1,-1,-1,-1,-1,-1,-1,-1,-1,-1,-1,-1,-1,-1,-1,-1,-1,-1,-1,-1,-1,-1,-1,-1,-1,-1,-1,-1,-1,-1,-1,-1,-1,-1,-1,-1,-1,-1,-1,-1,-1,-1,-1,-1,-1,-1,-1,-1,-1,-1,-1,-1,-1,-1,-1,-1],"loss_changes":[4.695364E4,9.166346E3,1.3079727E4,3.7028652E3,6.068213E3,4.0659062E3,6.2023203E3,2.2152793E3,2.2207998E3,1.5955635E3,4.132129E3,2.0819238E3,1.3290696E3,3.66421E3,2.4756816E3,4.5608398E2,1.6281504E3,3.6130322E2,8.7377966E2,6.8608307E2,1.115499E3,1.9547253E3,1.6816641E3,1.7948884E3,5.74218E2,6.5231494E2,6.4630176E2,2.653E3,2.181569E3,8.9243066E2,1.6232715E3,3.9063672E2,3.135332E2,1.4926875E3,9.338833E2,3.4318823E2,2.842004E2,1.9235608E2,7.98482E2,1.694469E2,4.1402383E2,8.2341797E2,3.074505E2,1.8273306E3,8.339546E2,1.1833853E3,6.407706E2,5.323219E2,1.0622566E3,2.1693097E2,4.557793E2,2.507832E2,4.7814148E2,2.815487E2,5.441412E2,4.1492084E2,1.8965586E3,7.2331177E2,7.968144E2,5.587602E2,1.0276902E3,1.4549014E3,7.5685156E2,0E0,0E0,0E0,0E0,0E0,0E0,0E0,0E0,0E0,0E0,0E0,0E0,0E0,0E0,0E0,0E0,0E0,0E0,0E0,0E0,0E0,0E0,0E0,0E0,0E0,0E0,0E0,0E0,0E0,0E0,0E0,0E0,0E0,0E0,0E0,0E0,0E0,0E0,0E0,0E0,0E0,0E0,0E0,0E0,0E0,0E0,0E0,0E0,0E0,0E0,0E0,0E0,0E0,0E0,0E0,0E0,0E0,0E0,0E0,0E0,0E0,0E0,0E0,0E0],"parents":[2147483647,0,0,1,1,2,2,3,3,4,4,5,5,6,6,7,7,8,8,9,9,10,10,11,11,12,12,13,13,14,14,15,15,16,16,17,17,18,18,19,19,20,20,21,21,22,22,23,23,24,24,25,25,26,26,27,27,28,28,29,29,30,30,31,31,32,32,33,33,34,34,35,35,36,36,37,37,38,38,39,39,40,40,41,41,42,42,43,43,44,44,45,45,46,46,47,47,48,48,49,49,50,50,51,51,52,52,53,53,54,54,55,55,56,56,57,57,58,58,59,59,60,60,61,61,62,62],"right_children":[2,4,6,8,10,12,14,16,18,20,22,24,26,28,30,32,34,36,38,40,42,44,46,48,50,52,54,56,58,60,62,64,66,68,70,72,74,76,78,80,82,84,86,88,90,92,94,96,98,100,102,104,106,108,110,112,114,116,118,120,122,124,126,-1,-1,-1,-1,-1,-1,-1,-1,-1,-1,-1,-1,-1,-1,-1,-1,-1,-1,-1,-1,-1,-1,-1,-1,-1,-1,-1,-1,-1,-1,-1,-1,-1,-1,-1,-1,-1,-1,-1,-1,-1,-1,-1,-1,-1,-1,-1,-1,-1,-1,-1,-1,-1,-1,-1,-1,-1,-1,-1,-1,-1,-1,-1,-1],"split_conditions":[6.1221562E-2,-1.427315E-1,-2.2455734E-1,6.3943344E-1,2E0,2.3314019E-1,2.581078E-1,2E0,-8.846534E-1,-8.9711154E-1,2E0,7.2489184E-1,-5.776502E-1,2E0,-6.6259557E-1,4.2311612E-1,7.3870826E-1,8.647157E-1,-1.374034E0,-1.1552763E0,1.352769E0,2.5425732E-1,6.3943344E-1,2E0,-4.5991567E-1,-8.3865947E-1,-1.1745101E0,1E0,1E0,9.0329576E-1,7.6960486E-1,9.3378834E-2,-9.746298E-1,3.876272E-2,4E0,-7.271144E-1,-1.3110932E0,-6.063735E-1,2E0,9.8806274E-1,-1.383641E-1,2E0,2.3831828E-1,1.6361398E-1,7.019995E-1,6.135128E-1,-3.5034868E-1,7.5294256E-1,1E0,4.6908042E-1,1.1725293E0,3.9573112E-1,-2.5912708E-1,-1.2699132E0,5.55892E-2,2E0,5.811216E-1,-1.0401048E-2,9.15625E-1,1.0380716E0,4.103651E-1,1.3048929E0,-1.5675305E-1,-4.1854672E0,-2.7869353E0,-4.148783E-1,-2.6337333E0,-1.4921322E0,-2.7386906E0,-2.5239944E-1,-1.9769223E0,-2.060863E-1,-2.3032236E0,8.6585027E-1,-1.5442069E0,-3.7420276E-1,2.6181457E0,-1.5503763E0,2.0146585E-1,-2.3824074E0,-1.3342312E-1,-8.271598E-1,1.0192218E0,-1.8644677E0,-3.243275E0,3.217575E-1,-1.4496871E0,2.4659179E-1,1.6440555E0,-6.7798716E-1,4.9117604E-1,-1.9183449E0,-4.4784352E-1,-4.8297986E-1,1.324597E0,-1.4567705E0,4.7663632E-1,-1.1552129E0,8.757345E-1,4.149232E-1,1.7850739E0,1.8366159E0,3.7453942E0,-3.423054E0,-1.2950705E0,-1.8798997E0,-4.1664582E-1,1.02584E0,-1.7546922E0,4.1371042E-1,-5.886585E-1,-1.6895841E0,1.1054439E-1,1.124476E0,2.3152802E0,3.3907357E-1,2.6445343E0,-6.53976E-2,-1.5930338E0,9.082974E-1,-1.5333277E0,3.11988E0,3.830836E-1,2.5146825E0,-5.47689E-1,4.311711E0,2.9422426E0],"split_indices":[17,18,18,16,4,19,16,4,17,19,12,16,16,12,13,1,14,14,19,17,18,19,16,4,13,14,13,8,6,17,17,14,24,19,4,22,17,3,4,0,14,12,1,13,11,14,17,14,8,21,17,3,13,23,5,4,18,11,19,26,19,19,19,0,0,0,0,0,0,0,0,0,0,0,0,0,0,0,0,0,0,0,0,0,0,0,0,0,0,0,0,0,0,0,0,0,0,0,0,0,0,0,0,0,0,0,0,0,0,0,0,0,0,0,0,0,0,0,0,0,0,0,0,0,0,0,0],"split_type":[0,0,0,0,0,0,0,0,0,0,0,0,0,0,0,0,0,0,0,0,0,0,0,0,0,0,0,0,0,0,0,0,0,0,0,0,0,0,0,0,0,0,0,0,0,0,0,0,0,0,0,0,0,0,0,0,0,0,0,0,0,0,0,0,0,0,0,0,0,0,0,0,0,0,0,0,0,0,0,0,0,0,0,0,0,0,0,0,0,0,0,0,0,0,0,0,0,0,0,0,0,0,0,0,0,0,0,0,0,0,0,0,0,0,0,0,0,0,0,0,0,0,0,0,0,0,0],"sum_hessian":[4E3,2.015E3,1.985E3,8.63E2,1.152E3,7.66E2,1.219E3,6.28E2,2.35E2,2.76E2,8.76E2,4.3E2,3.36E2,7.6E2,4.59E2,1.49E2,4.79E2,9.6E1,1.39E2,6.1E1,2.15E2,5.86E2,2.9E2,3.19E2,1.11E2,1.09E2,2.27E2,5.36E2,2.24E2,1.19E2,3.4E2,9.6E1,5.3E1,3.56E2,1.23E2,8E1,1.6E1,1.4E1,1.25E2,1.7E1,4.4E1,1.81E2,3.4E1,3.45E2,2.41E2,2.19E2,7.1E1,7.2E1,2.47E2,4.5E1,6.6E1,2.8E1,8.1E1,3.4E1,1.93E2,4.7E1,4.89E2,5.2E1,1.72E2,6.4E1,5.5E1,1.68E2,1.72E2,5.1E1,4.5E1,7E0,4.6E1,1.72E2,1.84E2,8E1,4.3E1,8E0,7.2E1,7E0,9E0,2E0,1.2E1,3E1,9.5E1,1.3E1,4E0,1.7E1,2.7E1,1.17E2,6.4E1,1.9E1,1.5E1,2E2,1.45E2,1.58E2,8.3E1,1.43E2,7.6E1,4.2E1,2.9E1,5.6E1,1.6E1,2.5E1,2.22E2,2.9E1,1.6E1,5E1,1.6E1,1.9E1,9E0,3.8E1,4.3E1,3E0,3.1E1,9.7E1,9.6E1,1.8E1,2.9E1,2.34E2,2.55E2,2E1,3.2E1,1.33E2,3.9E1,5.5E1,9E0,3.6E1,1.9E1,1.53E2,1.5E1,7.8E1,9.4E1],"tree_param":{"num_deleted":"0","num_feature":"33","num_nodes":"127","size_leaf_vector":"1"}},{"base_weights":[-3.3152797E-3,-2.8935382E0,2.139828E0,-4.2584786E0,-7.858755E-1,6.8678176E-1,4.6097116E0,-6.4549456E0,-3.085712E0,-2.2050908E0,1.216051E0,-2.5044303E0,1.587056E0,2.6562076E0,6.328278E0,-9.593302E0,-5.1198254E0,-1.9394362E0,-5.3900743E0,-5.363693E0,-1.24919E0,-8.460097E-1,3.2694256E0,-3.6749012E0,1.1591386E0,3.0180433E0,-7.320347E-1,3.9846756E0,-2.3085123E-1,3.7581298E-1,6.858074E0,-2.9069066E0,-1.0183721E1,-5.8538976E0,-2.6374066E-2,-4.8020062E0,-9.283567E-1,-3.5473807E0,-8.251013E0,-7.223566E0,-1.7088165E0,-4.866094E0,-2.2141892E-1,-3.470731E0,1.6105255E0,-9.667703E-2,4.6644444E0,-1.9315399E0,-5.615416E0,-1.318722E0,4.086607E0,8.3523196E-1,4.466065E0,-2.1095572E0,1.8193853E0,2.2677267E0,5.5416865E0,-5.7579713E0,6.177244E-1,-3.0129952E0,4.308544E0,1.0302385E1,6.004799E0,6.60644E-1,-1.6233281E0,-3.9753838E0,-2.6621256E0,-2.0725026E0,-9.4283897E-1,-7.837464E-1,1.6150059E0,-6.0137576E-1,-1.8632644E0,-8.469909E-1,2.4310893E-1,-1.4781464E0,-4.1267744E-1,-3.2227988E0,-1.4726743E0,-1.571541E0,-2.9379487E0,3.9195865E-1,-1.563993E0,-2.7510593E0,-1.0980307E0,-9.2321837E-1,2.1635196E-1,-2.0844248E-1,-1.7756754E0,-2.8417787E-1,1.4218729E0,4.3092257E-1,-1.3643321E0,5.113562E-1,1.8158098E0,-1.2963916E0,-6.244012E-2,-2.376126E0,-9.5143735E-1,-2.1975298E0,1.5797885E-2,8.8222814E-1,3.7554567E0,-7.130999E-2,1.2749228E0,2.0082188E0,6.2901944E-1,-1.6211959E0,-3.5146153E-1,9.7816604E-1,-3.5574257E-1,3.701432E-1,1.9306403E0,1.1028302E0,2.592091E0,-2.2495935E0,-2.4187662E-2,1.1701906E0,-2.6475906E-1,-1.5064801E0,-9.0410955E-2,1.4906804E-1,2.7032988E0,2.6898074E0,4.6753907E0,1.1181879E0,2.3107073E0],"categories":[],"categories_nodes":[],"categories_segments":[],"categories_sizes":[],"default_left":[0,0,0,0,0,0,0,0,0,0,0,0,0,0,0,0,0,0,0,0,0,0,0,0,0,0,0,0,0,0,0,0,0,0,0,0,0,0,0,0,0,0,0,0,0,0,0,0,0,0,0,0,0,0,0,0,0,0,0,0,0,0,0,0,0,0,0,0,0,0,0,0,0,0,0,0,0,0,0,0,0,0,0,0,0,0,0,0,0,0,0,0,0,0,0,0,0,0,0,0,0,0,0,0,0,0,0,0,0,0,0,0,0,0,0,0,0,0,0,0,0,0,0,0,0,0,0],"id":1,"left_children":[1,3,5,7,9,11,13,15,17,19,21,23,25,27,29,31,33,35,37,39,41,43,45,47,49,51,53,55,57,59,61,63,65,67,69,71,73,75,77,79,81,83,85,87,89,91,93,95,97,99,101,103,105,107,109,111,113,115,117,119,121,123,125,-1,-1,-1,-1,-1,-1,-1,-1,-1,-1,-1,-1,-1,-1,-1,-1,-1,-1,-1,-1,-1,-1,-1,-1,-1,-1,-1,-1,-1,-1,-1,-1,-1,-1,-1,-1,-1,-1,-1,-1,-1,-1,-1,-1,-1,-1,-1,-1,-1,-1,-1,-1,-1,-1,-1,-1,-1,-1,-1,-1,-1,-1,-1,-1],"loss_changes":[2.4789033E4,4.8987783E3,8.244022E3,2.6436074E3,1.9091031E3,4.1640293E3,2.8401914E3,1.455126E3,1.7751558E3,1.1798888E3,1.184103E3,1.372164E3,3.7522156E3,1.5350659E3,1.4228477E3,3.8886133E2,9.495415E2,1.3066538E3,1.1516211E3,6.062383E2,1.1252793E3,9.082706E2,6.5785974E2,8.07844E2,5.7119006E2,2.2056396E3,1.5221619E3,7.199199E2,5.992096E2,5.1941797E2,1.1577988E3,1.3985623E2,2.721963E2,6.129209E2,4.7573953E2,4.5261304E2,1.1093341E3,4.0675012E2,6.7174365E2,2.5475269E2,3.449636E2,3.14214E2,6.40228E2,4.5801398E2,5.887405E2,2.9313672E2,3.9648682E2,5.303917E2,6.170808E2,3.5457822E2,3.109937E2,1.0268005E3,2.2030889E3,8.620255E2,6.621769E2,5.6086017E2,7.948828E2,1.6739636E2,5.5013983E2,1.12864914E2,3.1815634E2,4.3204492E2,1.2664678E3,0E0,0E0,0E0,0E0,0E0,0E0,0E0,0E0,0E0,0E0,0E0,0E0,0E0,0E0,0E0,0E0,0E0,0E0,0E0,0E0,0E0,0E0,0E0,0E0,0E0,0E0,0E0,0E0,0E0,0E0,0E0,0E0,0E0,0E0,0E0,0E0,0E0,0E0,0E0,0E0,0E0,0E0,0E0,0E0,0E0,0E0,0E0,0E0,0E0,0E0,0E0,0E0,0E0,0E0,0E0,0E0,0E0,0E0,0E0,0E0,0E0,0E0,0E0,0E0],"parents":[2147483647,0,0,1,1,2,2,3,3,4,4,5,5,6,6,7,7,8,8,9,9,10,10,11,11,12,12,13,13,14,14,15,15,16,16,17,17,18,18,19,19,20,20,21,21,22,22,23,23,24,24,25,25,26,26,27,27,28,28,29,29,30,30,31,31,32,32,33,33,34,34,35,35,36,36,37,37,38,38,39,39,40,40,41,41,42,42,43,43,44,44,45,45,46,46,47,47,48,48,49,49,50,50,51,51,52,52,53,53,54,54,55,55,56,56,57,57,58,58,59,59,60,60,61,61,62,62],"right_children":[2,4,6,8,10,12,14,16,18,20,22,24,26,28,30,32,34,36,38,40,42,44,46,48,50,52,54,56,58,60,62,64,66,68,70,72,74,76,78,80,82,84,86,88,90,92,94,96,98,100,102,104,106,108,110,112,114,116,118,120,122,124,126,-1,-1,-1,-1,-1,-1,-1,-1,-1,-1,-1,-1,-1,-1,-1,-1,-1,-1,-1,-1,-1,-1,-1,-1,-1,-1,-1,-1,-1,-1,-1,-1,-1,-1,-1,-1,-1,-1,-1,-1,-1,-1,-1,-1,-1,-1,-1,-1,-1,-1,-1,-1,-1,-1,-1,-1,-1,-1,-1,-1,-1,-1,-1,-1],"split_conditions":[-1.7308699E-1,3.072847E-1,4.4457716E-1,-4.320006E-1,-7.424486E-1,2E0,-1.9940089E-1,-6.063735E-1,2E0,-7.608001E-1,-6.943337E-2,8.842116E-1,4E0,4.442141E-1,1E0,-1.4391706E0,1.2461306E0,2E0,2.0794871E-1,7.63706E-1,-7.6500076E-1,-1.0401048E-2,-6.063735E-1,6.3456446E-3,9.2883193E-1,-2.557073E-1,9.40672E-1,6.268468E-1,-1.1745101E0,-1.053212E-1,-9.120808E-1,-1.6815263E-1,-5.195119E-1,7.051064E-1,-5.659421E-1,-6.95534E-1,-9.382129E-1,-7.5792766E-1,-1.0401048E-2,2E0,4E0,-1.6215129E0,2E0,9.78056E-2,2.0368946E-1,1.3949385E-1,-5.8331954E-1,5.2145827E-1,6.1279155E-2,2E0,1.3315108E0,1.1463381E0,6.3456446E-3,-8.6018944E-1,2E0,1.1318144E0,1.9412176E-1,3.966686E-1,-4.5214796E-1,-6.2790066E-2,5.852874E-1,1.233054E0,-2.0382763E-1,6.60644E-1,-1.6233281E0,-3.9753838E0,-2.6621256E0,-2.0725026E0,-9.4283897E-1,-7.837464E-1,1.6150059E0,-6.0137576E-1,-1.8632644E0,-8.469909E-1,2.4310893E-1,-1.4781464E0,-4.1267744E-1,-3.2227988E0,-1.4726743E0,-1.571541E0,-2.9379487E0,3.9195865E-1,-1.563993E0,-2.7510593E0,-1.0980307E0,-9.2321837E-1,2.1635196E-1,-2.0844248E-1,-1.7756754E0,-2.8417787E-1,1.4218729E0,4.3092257E-1,-1.3643321E0,5.113562E-1,1.8158098E0,-1.2963916E0,-6.244012E-2,-2.376126E0,-9.5143735E-1,-2.1975298E0,1.5797885E-2,8.8222814E-1,3.7554567E0,-7.130999E-2,1.2749228E0,2.0082188E0,6.2901944E-1,-1.6211959E0,-3.5146153E-1,9.7816604E-1,-3.5574257E-1,3.701432E-1,1.9306403E0,1.1028302E0,2.592091E0,-2.2495935E0,-2.4187662E-2,1.1701906E0,-2.6475906E-1,-1.5064801E0,-9.0410955E-2,1.4906804E-1,2.7032988E0,2.6898074E0,4.6753907E0,1.1181879E0,2.3107073E0],"split_indices":[17,13,18,18,17,4,16,3,12,18,16,16,4,19,4,5,16,4,19,15,14,11,3,19,17,14,17,17,13,3,19,23,16,15,13,19,17,17,11,12,4,17,4,19,15,20,14,17,14,7,27,17,19,16,12,14,13,0,1,15,13,17,13,0,0,0,0,0,0,0,0,0,0,0,0,0,0,0,0,0,0,0,0,0,0,0,0,0,0,0,0,0,0,0,0,0,0,0,0,0,0,0,0,0,0,0,0,0,0,0,0,0,0,0,0,0,0,0,0,0,0,0,0,0,0,0,0],"split_type":[0,0,0,0,0,0,0,0,0,0,0,0,0,0,0,0,0,0,0,0,0,0,0,0,0,0,0,0,0,0,0,0,0,0,0,0,0,0,0,0,0,0,0,0,0,0,0,0,0,0,0,0,0,0,0,0,0,0,0,0,0,0,0,0,0,0,0,0,0,0,0,0,0,0,0,0,0,0,0,0,0,0,0,0,0,0,0,0,0,0,0,0,0,0,0,0,0,0,0,0,0,0,0,0,0,0,0,0,0,0,0,0,0,0,0,0,0,0,0,0,0,0,0,0,0,0,0],"sum_hessian":[4E3,1.703E3,2.297E3,1.033E3,6.7E2,1.447E3,8.5E2,3.58E2,6.75E2,3.92E2,2.78E2,3.18E2,1.129E3,3.99E2,4.51E2,1.05E2,2.53E2,4.52E2,2.23E2,9E1,3.02E2,1.39E2,1.39E2,2.41E2,7.7E1,6.98E2,4.31E2,2.73E2,1.26E2,3.7E1,4.14E2,9E0,9.6E1,2.21E2,3.2E1,1.17E2,3.35E2,1.37E2,8.6E1,5.9E1,3.1E1,6.6E1,2.36E2,6.7E1,7.2E1,4.1E1,9.8E1,1.28E2,1.13E2,4.2E1,3.5E1,2.79E2,4.19E2,2.8E2,1.51E2,1.31E2,1.42E2,1.6E1,1.1E2,2E1,1.7E1,8E1,3.34E2,3E0,6E0,2.6E1,7E1,1.58E2,6.3E1,2.2E1,1E1,4E1,7.7E1,1.6E2,1.75E2,8.3E1,5.4E1,4.8E1,3.8E1,3.5E1,2.4E1,1.7E1,1.4E1,1.3E1,5.3E1,5.8E1,1.78E2,3.2E1,3.5E1,4E1,3.2E1,3.1E1,1E1,3.2E1,6.6E1,5.3E1,7.5E1,5.7E1,5.6E1,7E0,3.5E1,3.2E1,3E0,2.13E2,6.6E1,2.15E2,2.04E2,6.1E1,2.19E2,1.02E2,4.9E1,1.06E2,2.5E1,9E1,5.2E1,1.2E1,4E0,3.4E1,7.6E1,1.1E1,9E0,1E1,7E0,6.6E1,1.4E1,1.44E2,1.9E2],"tree_param":{"num_deleted":"0","num_feature":"33","num_nodes":"127","size_leaf_vector":"1"}},{"base_weights":[-5.3681247E-3,-1.6250579E0,2.0103903E0,-6.32182E0,-1.2570133E0,-1.12098165E-1,3.1419938E0,-7.6370993E0,-2.7616086E0,1.0574976E-1,-2.5949576E0,-2.0825808E0,1.2664692E0,1.8395025E-1,4.0232587E0,-9.943838E0,-5.888298E0,-3.812787E0,4.7065167E0,-4.8466292E-1,3.285937E0,-4.257727E0,-1.2871007E0,-4.0505247E0,-7.951133E-1,2.5588067E0,-1.0993034E0,-6.1269677E-1,5.174171E0,5.103565E0,1.3025578E0,-1.0296711E1,-3.3026603E-1,-6.438912E0,2.447345E0,-5.0650935E0,1.8295758E0,2.3780208E0,2.4771256E0,-2.5207539E0,3.844216E-1,-2.2202573E0,3.999541E0,-6.1983037E0,-2.5973291E0,-4.0341806E0,-5.208725E-1,-4.95217E0,-1.5125275E-1,-4.606646E0,-1.3496135E-1,1.0000722E0,4.6120324E0,-2.9818506E0,1.1466993E0,-4.489535E0,1.6982579E-1,1.0376894E1,3.1312635E0,7.4582543E0,3.963291E0,4.5937934E0,1.4603625E-2,-9.581152E-1,-3.2125263E0,-2.7626646E0,-1.5546417E0,9.170194E-1,1.4699936E-3,-1.7610085E0,1.849632E-1,-1.9448262E-1,1.3408488E0,4.5181848E-2,9.063312E-1,-1.2657179E0,-2.8987545E-1,-2.3058502E-1,5.6906015E-1,-1.1129768E0,8.0783695E-1,7.597535E-1,2.0196657E0,-2.6190376E0,-1.54537E0,-1.0117259E0,3.8537985E-1,-1.6639884E0,-6.4177775E-1,-4.9803466E-1,3.7731874E-1,-1.6673673E0,-4.839315E-1,-1.7694355E0,4.962288E-1,-1.9345288E0,5.059433E-1,-7.0795614E-1,2.61384E-1,-1.5115525E-1,1.1041758E0,-3.9251617E-1,1.6026198E0,-2.1809335E0,-4.8068273E-1,-1.3527581E-1,1.1780157E0,1.8825169E-1,-1.8136692E0,-4.2995676E-1,6.858222E-1,1.2718812E0,4.128546E0,8.21806E-2,1.7907075E0,1.0240844E0,2.5950935E0,1.3794365E0,2.4043364E-2,-2.2089791E-1,1.7679209E0,-4.6889076E-1,6.893222E-1],"categories":[],"categories_nodes":[],"categories_segments":[],"categories_sizes":[],"default_left":[0,0,0,0,0,0,0,0,0,0,0,0,0,0,0,0,0,0,0,0,0,0,0,0,0,0,0,0,0,0,0,0,0,0,0,0,0,0,0,0,0,0,0,0,0,0,0,0,0,0,0,0,0,0,0,0,0,0,0,0,0,0,0,0,0,0,0,0,0,0,0,0,0,0,0,0,0,0,0,0,0,0,0,0,0,0,0,0,0,0,0,0,0,0,0,0,0,0,0,0,0,0,0,0,0,0,0,0,0,0,0,0,0,0,0,0,0,0,0,0,0,0,0],"id":2,"left_children":[1,3,5,7,9,11,13,15,17,19,21,23,25,27,29,31,33,35,37,39,41,43,45,47,49,51,53,55,57,59,61,63,-1,65,67,69,71,-1,73,75,77,79,81,83,85,87,89,91,93,95,97,99,101,103,105,107,109,111,113,115,117,119,121,-1,-1,-1,-1,-1,-1,-1,-1,-1,-1,-1,-1,-1,-1,-1,-1,-1,-1,-1,-1,-1,-1,-1,-1,-1,-1,-1,-1,-1,-1,-1,-1,-1,-1,-1,-1,-1,-1,-1,-1,-1,-1,-1,-1,-1,-1,-1,-1,-1,-1,-1,-1,-1,-1,-1,-1,-1,-1,-1,-1],"loss_changes":[1.3066145E4,3.827856E3,4.282789E3,7.3281934E2,3.7544517E3,1.6895487E3,3.0309922E3,4.134292E2,3.7120987E2,1.9186456E3,2.253997E3,6.453972E2,1.1218126E3,1.0685892E3,2.6268662E3,1.4156592E2,3.3244897E2,2.9190576E2,2.3439255E1,1.5263081E3,6.3755884E2,1.4564141E3,1.2250496E3,3.5434277E2,3.9190405E2,7.538906E2,5.53086E2,7.045839E2,3.6076843E2,1.6915195E3,1.0851068E3,1.0324609E2,0E0,1.785581E2,7.426985E0,1.5453955E2,5.5228096E1,0E0,5.872883E0,6.770487E2,1.0565221E3,1.4904715E2,5.5221704E2,5.117378E2,7.505254E2,3.521123E2,9.2808856E2,1.5688281E2,2.1725798E2,2.7745816E2,3.020524E2,5.501094E2,4.4784375E2,4.0835358E2,2.682553E2,3.1432184E2,6.6139764E2,1.493982E2,2.2540051E2,9.7333105E2,1.0695029E3,5.0296057E2,6.69927E2,0E0,0E0,0E0,0E0,0E0,0E0,0E0,0E0,0E0,0E0,0E0,0E0,0E0,0E0,0E0,0E0,0E0,0E0,0E0,0E0,0E0,0E0,0E0,0E0,0E0,0E0,0E0,0E0,0E0,0E0,0E0,0E0,0E0,0E0,0E0,0E0,0E0,0E0,0E0,0E0,0E0,0E0,0E0,0E0,0E0,0E0,0E0,0E0,0E0,0E0,0E0,0E0,0E0,0E0,0E0,0E0,0E0,0E0,0E0,0E0],"parents":[2147483647,0,0,1,1,2,2,3,3,4,4,5,5,6,6,7,7,8,8,9,9,10,10,11,11,12,12,13,13,14,14,15,15,16,16,17,17,18,18,19,19,20,20,21,21,22,22,23,23,24,24,25,25,26,26,27,27,28,28,29,29,30,30,31,31,33,33,34,34,35,35,36,36,38,38,39,39,40,40,41,41,42,42,43,43,44,44,45,45,46,46,47,47,48,48,49,49,50,50,51,51,52,52,53,53,54,54,55,55,56,56,57,57,58,58,59,59,60,60,61,61,62,62],"right_children":[2,4,6,8,10,12,14,16,18,20,22,24,26,28,30,32,34,36,38,40,42,44,46,48,50,52,54,56,58,60,62,64,-1,66,68,70,72,-1,74,76,78,80,82,84,86,88,90,92,94,96,98,100,102,104,106,108,110,112,114,116,118,120,122,-1,-1,-1,-1,-1,-1,-1,-1,-1,-1,-1,-1,-1,-1,-1,-1,-1,-1,-1,-1,-1,-1,-1,-1,-1,-1,-1,-1,-1,-1,-1,-1,-1,-1,-1,-1,-1,-1,-1,-1,-1,-1,-1,-1,-1,-1,-1,-1,-1,-1,-1,-1,-1,-1,-1,-1,-1,-1,-1,-1],"split_conditions":[2.2081047E-1,1E0,-3.2299614E-1,6.177042E-1,-1.2993512E-2,-3.995926E-1,2E0,-1.053212E-1,1.0342484E0,1.0882186E0,-1.053212E-1,-4.2695633E-1,4.103651E-1,1.2461306E0,2E0,1.8148048E0,1.8820063E0,1.832336E0,-1.4834975E0,-5.2418333E-1,1E0,-9.055354E-2,2E0,1.8626428E-1,-7.228016E-1,2.4667181E-1,3.7280408E-1,-1.1168036E0,-6.255457E-1,3E0,1E0,-1.5273666E0,-3.3026603E-1,-1.0567483E0,-4.676288E-1,1.1332022E0,-8.498818E-1,2.3780208E0,-1.3990462E-1,4.2503152E-2,1.6755284E-1,1.3046697E0,5.852874E-1,-6.549828E-1,1.0322969E0,1.3455811E-1,1.7648461E-1,1.4126302E0,-9.366022E-1,1.1463381E0,-5.642414E-1,7.019995E-1,-1.7056026E0,2E0,7.019995E-1,-7.722537E-1,2.0790784E-1,-1.053212E-1,-1.6445061E-2,-8.01974E-1,1.2299174E0,-8.174608E-1,4.1279933E-1,-9.581152E-1,-3.2125263E0,-2.7626646E0,-1.5546417E0,9.170194E-1,1.4699936E-3,-1.7610085E0,1.849632E-1,-1.9448262E-1,1.3408488E0,4.5181848E-2,9.063312E-1,-1.2657179E0,-2.8987545E-1,-2.3058502E-1,5.6906015E-1,-1.1129768E0,8.0783695E-1,7.597535E-1,2.0196657E0,-2.6190376E0,-1.54537E0,-1.0117259E0,3.8537985E-1,-1.6639884E0,-6.4177775E-1,-4.9803466E-1,3.7731874E-1,-1.6673673E0,-4.839315E-1,-1.7694355E0,4.962288E-1,-1.9345288E0,5.059433E-1,-7.0795614E-1,2.61384E-1,-1.5115525E-1,1.1041758E0,-3.9251617E-1,1.6026198E0,-2.1809335E0,-4.8068273E-1,-1.3527581E-1,1.1780157E0,1.8825169E-1,-1.8136692E0,-4.2995676E-1,6.858222E-1,1.2718812E0,4.128546E0,8.21806E-2,1.7907075E0,1.0240844E0,2.5950935E0,1.3794365E0,2.4043364E-2,-2.2089791E-1,1.7679209E0,-4.6889076E-1,6.893222E-1],"split_indices":[17,8,18,16,19,13,4,3,13,18,3,16,19,16,12,15,24,16,0,14,4,14,4,25,11,14,10,13,5,4,6,5,0,16,1,28,2,0,0,16,16,1,13,13,18,18,16,17,32,17,0,11,18,4,11,5,14,3,27,16,19,16,14,0,0,0,0,0,0,0,0,0,0,0,0,0,0,0,0,0,0,0,0,0,0,0,0,0,0,0,0,0,0,0,0,0,0,0,0,0,0,0,0,0,0,0,0,0,0,0,0,0,0,0,0,0,0,0,0,0,0,0,0],"split_type":[0,0,0,0,0,0,0,0,0,0,0,0,0,0,0,0,0,0,0,0,0,0,0,0,0,0,0,0,0,0,0,0,0,0,0,0,0,0,0,0,0,0,0,0,0,0,0,0,0,0,0,0,0,0,0,0,0,0,0,0,0,0,0,0,0,0,0,0,0,0,0,0,0,0,0,0,0,0,0,0,0,0,0,0,0,0,0,0,0,0,0,0,0,0,0,0,0,0,0,0,0,0,0,0,0,0,0,0,0,0,0,0,0,0,0,0,0,0,0,0,0,0,0],"sum_hessian":[4E3,2.218E3,1.782E3,1.6E2,2.058E3,6.2E2,1.162E3,1.16E2,4.4E1,1.02E3,1.038E3,2.55E2,3.65E2,2.67E2,8.95E2,4.8E1,6.8E1,3.9E1,5E0,8.61E2,1.59E2,4.56E2,5.82E2,1E2,1.55E2,2.36E2,1.29E2,2.31E2,3.6E1,6.4E2,2.55E2,4.6E1,2E0,6.4E1,4E0,3.2E1,7E0,1E0,4E0,2.57E2,6.04E2,1.8E1,1.41E2,2.09E2,2.47E2,1.26E2,4.56E2,8.1E1,1.9E1,2.2E1,1.33E2,1.35E2,1.01E2,7E1,5.9E1,3.8E1,1.93E2,9E0,2.7E1,2.07E2,4.33E2,7.1E1,1.84E2,3E0,4.3E1,1.8E1,4.6E1,3E0,1E0,2.8E1,4E0,4E0,3E0,1E0,3E0,1.22E2,1.35E2,3.43E2,2.61E2,1.4E1,4E0,9.3E1,4.8E1,5.9E1,1.5E2,2.06E2,4.1E1,6.9E1,5.7E1,2.78E2,1.78E2,6.8E1,1.3E1,4E0,1.5E1,1.7E1,5E0,4.1E1,9.2E1,8.7E1,4.8E1,1.1E1,9E1,1.6E1,5.4E1,3.8E1,2.1E1,9E0,2.9E1,1.1E2,8.3E1,4E0,5E0,1.4E1,1.3E1,4.8E1,1.59E2,3.72E2,6.1E1,1.4E1,5.7E1,1.09E2,7.5E1],"tree_param":{"num_deleted":"0","num_feature":"33","num_nodes":"123","size_leaf_vector":"1"}},{"base_weights":[-4.5127734E-3,-2.0790246E0,9.5429677E-1,-2.9991474E0,-1.4595747E-1,3.4171176E-1,3.071848E0,-6.1578217E0,-2.5878983E0,9.1345793E-1,-2.4788418E0,-3.7875247E0,7.283197E-1,4.1947055E0,1.4201884E0,-5.0533524E0,-8.875006E0,-3.0288472E0,4.524302E-2,-5.5188376E-1,2.5131402E0,6.0774624E-1,-3.5574224E0,2.1134603E0,-4.216497E0,1.5712343E0,-9.354237E-1,-1.2780097E0,4.56649E0,3.6334422E0,6.0655695E-1,-7.9883623E0,-4.140835E0,-9.445275E0,-1.1644217E0,-5.712223E0,-2.5082195E0,-1.309223E0,2.26936E0,-1.8350064E0,9.040958E-1,3.2819444E-1,4.4780464E0,-5.1511045E0,2.5778196E0,-5.8724016E-1,-4.4445014E0,6.0898256E0,-2.164828E0,-7.423785E0,-3.4477937E0,6.91747E-1,3.359622E0,-1.6906941E0,1.0628479E0,1.1599053E0,-1.921422E0,3.1185796E0,5.8675566E0,4.9114847E0,-2.053156E0,-1.2014515E0,1.5578461E0,-2.5837755E0,-7.23761E-1,-1.0538226E0,-2.668251E0,-3.0923936E0,-1.1798606E0,-5.085463E-1,-1.5443516E-2,-2.1959145E0,-8.7511677E-1,-3.6593196E-1,-1.0838507E0,-1.0461316E0,2.2387116E-3,1.3609934E0,5.974218E-2,-1.5936633E0,-3.5831898E-1,-9.142284E-1,5.576353E-1,-8.757343E-1,7.703749E-1,6.7091167E-1,1.8780079E0,-2.1596239E0,-2.375599E-1,1.5174707E0,2.713384E-2,-4.283314E-1,1.6476676E0,1.0740455E0,-1.4162918E0,8.766587E-1,2.8017805E0,2.4728766E-1,-8.401191E-1,-3.0114167E0,-1.1375226E0,-1.287405E0,-1.479147E-1,-2.778366E-1,5.263703E-1,8.754132E-1,2.3734086E0,-2.5497383E-1,-1.1817673E0,-5.723521E-1,6.380954E-1,2.2339575E-1,-8.2480943E-1,4.7511566E-1,1.7916075E0,2.1161454E0,9.614372E-1,-3.4137726E-1,1.8843256E0,1.7550252E-1,-1.5685548E0,-6.8414426E-1,4.4225088E-1,-2.3319435E-1,7.9089636E-1],"categories":[],"categories_nodes":[],"categories_segments":[],"categories_sizes":[],"default_left":[0,0,0,0,0,0,0,0,0,0,0,0,0,0,0,0,0,0,0,0,0,0,0,0,0,0,0,0,0,0,0,0,0,0,0,0,0,0,0,0,0,0,0,0,0,0,0,0,0,0,0,0,0,0,0,0,0,0,0,0,0,0,0,0,0,0,0,0,0,0,0,0,0,0,0,0,0,0,0,0,0,0,0,0,0,0,0,0,0,0,0,0,0,0,0,0,0,0,0,0,0,0,0,0,0,0,0,0,0,0,0,0,0,0,0,0,0,0,0,0,0,0,0,0,0],"id":3,"left_children":[1,3,5,7,9,11,13,15,17,19,21,23,25,27,29,31,33,35,37,39,41,43,45,47,49,51,53,55,57,59,61,63,65,67,69,71,73,75,77,79,81,83,85,87,89,91,93,95,97,99,101,103,105,107,109,-1,111,113,115,117,119,121,123,-1,-1,-1,-1,-1,-1,-1,-1,-1,-1,-1,-1,-1,-1,-1,-1,-1,-1,-1,-1,-1,-1,-1,-1,-1,-1,-1,-1,-1,-1,-1,-1,-1,-1,-1,-1,-1,-1,-1,-1,-1,-1,-1,-1,-1,-1,-1,-1,-1,-1,-1,-1,-1,-1,-1,-1,-1,-1,-1,-1,-1,-1],"loss_changes":[7.960219E3,2.249567E3,3.5493315E3,1.0973091E3,1.01310516E3,3.393503E3,1.1327544E3,2.4925366E2,8.825581E2,6.6241785E2,4.282912E2,4.6961865E2,2.7263208E3,7.484912E2,4.479893E2,1.597555E2,1.0772388E2,8.95145E2,3.343451E2,2.7815268E2,5.781142E2,3.9902078E2,2.4769458E2,2.343399E2,3.935315E2,2.0266707E3,9.8883685E2,8.6867584E1,6.259707E2,4.970208E2,3.1834042E2,3.4910645E1,1.3893274E2,7.834912E1,1.6847615E0,4.504348E2,7.7410474E2,1.978894E2,1.962352E2,1.6963007E2,2.6973764E2,4.8024545E2,2.6961804E2,7.463495E1,1.5995528E2,1.2537119E2,1.7885864E2,4.476007E1,1.5606888E1,2.6578296E2,3.4434058E2,1.490716E3,8.3114307E2,8.9465027E2,5.730773E2,0E0,5.060916E1,7.088032E2,5.428076E2,4.6283728E2,1.1196129E2,1.8813452E2,3.0677716E2,0E0,0E0,0E0,0E0,0E0,0E0,0E0,0E0,0E0,0E0,0E0,0E0,0E0,0E0,0E0,0E0,0E0,0E0,0E0,0E0,0E0,0E0,0E0,0E0,0E0,0E0,0E0,0E0,0E0,0E0,0E0,0E0,0E0,0E0,0E0,0E0,0E0,0E0,0E0,0E0,0E0,0E0,0E0,0E0,0E0,0E0,0E0,0E0,0E0,0E0,0E0,0E0,0E0,0E0,0E0,0E0,0E0,0E0,0E0,0E0,0E0,0E0],"parents":[2147483647,0,0,1,1,2,2,3,3,4,4,5,5,6,6,7,7,8,8,9,9,10,10,11,11,12,12,13,13,14,14,15,15,16,16,17,17,18,18,19,19,20,20,21,21,22,22,23,23,24,24,25,25,26,26,27,27,28,28,29,29,30,30,31,31,32,32,33,33,34,34,35,35,36,36,37,37,38,38,39,39,40,40,41,41,42,42,43,43,44,44,45,45,46,46,47,47,48,48,49,49,50,50,51,51,52,52,53,53,54,54,56,56,57,57,58,58,59,59,60,60,61,61,62,62],"right_children":[2,4,6,8,10,12,14,16,18,20,22,24,26,28,30,32,34,36,38,40,42,44,46,48,50,52,54,56,58,60,62,64,66,68,70,72,74,76,78,80,82,84,86,88,90,92,94,96,98,100,102,104,106,108,110,-1,112,114,116,118,120,122,124,-1,-1,-1,-1,-1,-1,-1,-1,-1,-1,-1,-1,-1,-1,-1,-1,-1,-1,-1,-1,-1,-1,-1,-1,-1,-1,-1,-1,-1,-1,-1,-1,-1,-1,-1,-1,-1,-1,-1,-1,-1,-1,-1,-1,-1,-1,-1,-1,-1,-1,-1,-1,-1,-1,-1,-1,-1,-1,-1,-1,-1,-1],"split_conditions":[-5.331402E-1,5.852874E-1,8.294865E-1,1E0,2E0,1E0,2.1779834E-1,3.17461E-1,1.0882186E0,1.582425E-1,1E0,-1.4014521E0,4.610402E-1,-1.6567454E0,1E0,-8.8145036E-1,4.212773E-1,-7.228016E-1,3.228214E-1,-1.0687127E0,2.6293382E-2,2E0,-8.4240115E-1,-5.31317E-1,-9.201951E-1,5.811216E-1,7.1608996E-1,-1.7595869E0,-2.8986001E-2,5E0,1.1626457E0,7.5165915E-1,1.4654659E0,8.5743773E-1,-1.1891015E0,1.5546663E-1,-6.1945055E-2,-3.5532603E-1,-1.2017552E-1,-9.386905E-1,-9.9844027E-1,-1.0401048E-2,-2.7461168E-1,1.1954079E0,1.204231E-1,-8.658594E-1,-1.7968225E0,7.297913E-1,-1.1313789E0,1.123243E-1,9.562306E-1,-1.0401048E-2,1.5305077E0,2E0,-5.871298E-1,1.1599053E0,2E0,7.019995E-1,4E0,-1.2195842E0,5.096269E-1,5.722411E-1,-6.20368E-1,-2.5837755E0,-7.23761E-1,-1.0538226E0,-2.668251E0,-3.0923936E0,-1.1798606E0,-5.085463E-1,-1.5443516E-2,-2.1959145E0,-8.7511677E-1,-3.6593196E-1,-1.0838507E0,-1.0461316E0,2.2387116E-3,1.3609934E0,5.974218E-2,-1.5936633E0,-3.5831898E-1,-9.142284E-1,5.576353E-1,-8.757343E-1,7.703749E-1,6.7091167E-1,1.8780079E0,-2.1596239E0,-2.375599E-1,1.5174707E0,2.713384E-2,-4.283314E-1,1.6476676E0,1.0740455E0,-1.4162918E0,8.766587E-1,2.8017805E0,2.4728766E-1,-8.401191E-1,-3.0114167E0,-1.1375226E0,-1.287405E0,-1.479147E-1,-2.778366E-1,5.263703E-1,8.754132E-1,2.3734086E0,-2.5497383E-1,-1.1817673E0,-5.723521E-1,6.380954E-1,2.2339575E-1,-8.2480943E-1,4.7511566E-1,1.7916075E0,2.1161454E0,9.614372E-1,-3.4137726E-1,1.8843256E0,1.7550252E-1,-1.5685548E0,-6.8414426E-1,4.4225088E-1,-2.3319435E-1,7.9089636E-1],"split_indices":[17,13,16,4,12,8,19,19,18,14,6,20,19,18,6,14,13,11,0,17,18,4,28,19,18,18,14,19,13,4,16,15,20,18,0,16,19,16,31,26,16,11,21,10,19,28,5,15,0,32,17,11,17,12,13,0,7,11,4,14,20,0,18,0,0,0,0,0,0,0,0,0,0,0,0,0,0,0,0,0,0,0,0,0,0,0,0,0,0,0,0,0,0,0,0,0,0,0,0,0,0,0,0,0,0,0,0,0,0,0,0,0,0,0,0,0,0,0,0,0,0,0,0,0,0],"split_type":[0,0,0,0,0,0,0,0,0,0,0,0,0,0,0,0,0,0,0,0,0,0,0,0,0,0,0,0,0,0,0,0,0,0,0,0,0,0,0,0,0,0,0,0,0,0,0,0,0,0,0,0,0,0,0,0,0,0,0,0,0,0,0,0,0,0,0,0,0,0,0,0,0,0,0,0,0,0,0,0,0,0,0,0,0,0,0,0,0,0,0,0,0,0,0,0,0,0,0,0,0,0,0,0,0,0,0,0,0,0,0,0,0,0,0,0,0,0,0,0,0,0,0,0,0],"sum_hessian":[4E3,1.264E3,2.736E3,8.56E2,4.08E2,2.123E3,6.13E2,9.7E1,7.59E2,2.81E2,1.27E2,1.81E2,1.942E3,3.64E2,2.49E2,7.1E1,2.6E1,6.5E2,1.09E2,1.47E2,1.34E2,3.3E1,9.4E1,1.2E1,1.69E2,1.289E3,6.53E2,2.3E1,3.41E2,6.6E1,1.83E2,1.5E1,5.6E1,2.4E1,2E0,1.04E2,5.46E2,6.8E1,4.1E1,7.8E1,6.9E1,6.4E1,7E1,8E0,2.5E1,2.2E1,7.2E1,6E0,6E0,3.1E1,1.38E2,8.65E2,4.24E2,4.74E2,1.79E2,2E0,2.1E1,1.63E2,1.78E2,5.4E1,1.2E1,6.3E1,1.2E2,1.3E1,2E0,5.1E1,5E0,2E1,4E0,1E0,1E0,6.5E1,3.9E1,2.53E2,2.93E2,2.5E1,4.3E1,1.9E1,2.2E1,1.1E1,6.7E1,1.3E1,5.6E1,2.6E1,3.8E1,3.2E1,3.8E1,5E0,3E0,1.2E1,1.3E1,2E1,2E0,2E0,7E1,4E0,2E0,1E0,5E0,1.7E1,1.4E1,1.07E2,3.1E1,3.43E2,5.22E2,3.88E2,3.6E1,3.46E2,1.28E2,4.7E1,1.32E2,5E0,1.6E1,1.07E2,5.6E1,1.22E2,5.6E1,1E1,4.4E1,7E0,5E0,4.5E1,1.8E1,3.8E1,8.2E1],"tree_param":{"num_deleted":"0","num_feature":"33","num_nodes":"125","size_leaf_vector":"1"}},{"base_weights":[-5.611948E-3,-6.897662E-1,1.8084008E0,-2.4080923E0,-1.6678959E-1,6.257948E-1,3.166011E0,-4.0088835E0,-1.6407416E0,7.7443945E-1,-1.5395341E0,2.82639E0,-9.5902905E-2,1.8742816E0,4.4810586E0,-3.2414682E0,-5.899896E0,-2.175853E0,1.4230915E0,3.0139701E0,-6.5897994E-2,-3.7041333E0,-8.860881E-1,-6.985541E-1,4.0404778E0,1.6943004E0,-9.5488083E-1,3.14072E0,4.4845775E-1,1.3823009E0,5.0592093E0,1.4628047E0,-3.6381397E0,1.1118656E0,-6.118131E0,-9.214177E0,-1.9864038E0,-5.2429384E-1,3.972169E0,1.436127E0,4.3202143E0,-1.7294785E0,8.2834846E-1,-4.117309E0,3.4563804E0,-3.146608E0,-3.777997E-1,-1.5572475E0,3.3266947E0,-2.7164558E-1,5.146738E0,8.768396E-1,5.7450695E0,-7.057385E-1,-7.4363713E0,-4.58716E-1,3.8332965E0,2.5908806E0,-7.354806E-1,-5.0079107E0,2.8452244E0,3.4441955E0,6.1557055E0,-3.412755E-1,8.2347953E-1,-7.852452E-1,-1.6139148E0,-5.206387E-1,-2.0240765E0,-2.90175E0,-7.6339006E-1,-9.4649273E-1,-3.262386E-1,6.1908655E-2,-1.7040477E0,4.3611422E-1,1.8254881E0,-6.0651916E-1,6.8498814E-1,1.833876E0,5.0322455E-1,-1.3223976E0,-2.916396E-1,-2.3688917E-1,5.50136E-1,-8.463784E-1,-1.687342E0,3.855034E-2,1.5312773E0,-3.075407E-1,-1.2092853E0,-4.7068024E-1,1.624839E-1,1.0958403E0,-6.6665304E-1,1.6918526E0,-4.910677E-1,-1.1835122E0,5.8515036E-1,1.9932035E0,5.878138E-2,-2.5317872E-1,9.3016243E-1,1.96156E0,-5.966057E-1,1.1180398E0,-3.0383092E-1,-2.6040864E0,-9.268337E-1,1.2826759E0,-7.143454E-1,-6.2345475E-2,1.3609282E0,2.9100976E0,4.9122846E-1,-1.0572627E0,9.505499E-2,-8.609159E-1,-2.2844973E0,1.2080073E0,-4.493638E-1,4.7947663E-1,1.4847547E0,1.5955399E0,3.0146325E0],"categories":[],"categories_nodes":[],"categories_segments":[],"categories_sizes":[],"default_left":[0,0,0,0,0,0,0,0,0,0,0,0,0,0,0,0,0,0,0,0,0,0,0,0,0,0,0,0,0,0,0,0,0,0,0,0,0,0,0,0,0,0,0,0,0,0,0,0,0,0,0,0,0,0,0,0,0,0,0,0,0,0,0,0,0,0,0,0,0,0,0,0,0,0,0,0,0,0,0,0,0,0,0,0,0,0,0,0,0,0,0,0,0,0,0,0,0,0,0,0,0,0,0,0,0,0,0,0,0,0,0,0,0,0,0,0,0,0,0,0,0,0,0,0,0],"id":4,"left_children":[1,3,5,7,9,11,13,15,17,19,21,23,25,27,29,31,33,35,37,39,41,43,45,47,49,51,53,55,57,59,61,63,65,-1,67,69,71,73,75,77,79,81,83,85,87,89,91,93,95,97,99,101,103,105,107,109,111,113,115,117,119,121,123,-1,-1,-1,-1,-1,-1,-1,-1,-1,-1,-1,-1,-1,-1,-1,-1,-1,-1,-1,-1,-1,-1,-1,-1,-1,-1,-1,-1,-1,-1,-1,-1,-1,-1,-1,-1,-1,-1,-1,-1,-1,-1,-1,-1,-1,-1,-1,-1,-1,-1,-1,-1,-1,-1,-1,-1,-1,-1,-1,-1,-1,-1],"loss_changes":[4.9667466E3,2.611059E3,1.7576663E3,8.262561E2,2.8812097E3,9.3252356E2,8.5793066E2,2.9868677E2,7.5726294E2,2.4900337E3,1.2796226E3,6.233635E2,6.8283887E2,4.662724E2,4.4447705E2,3.0015796E2,1.5265137E2,5.0439197E2,3.4460107E2,7.378342E2,1.4340404E3,6.3552734E2,8.0081055E2,1.3652576E2,5.1659375E2,4.7179626E2,4.79196E2,3.432837E2,3.1389462E2,3.975326E2,3.5421973E2,4.646499E1,2.4544116E2,0E0,1.5639355E2,5.955078E0,3.9890234E2,1.518587E2,1.507833E2,4.8796414E2,9.2308496E2,6.793406E2,1.02143774E3,3.7284985E2,6.515134E1,2.3600952E2,6.26177E2,1.1897519E2,8.959022E1,1.9543976E2,6.361904E2,4.656203E2,1.6027795E2,3.984433E2,3.266205E1,2.1951276E2,3.2770715E2,2.823712E2,2.3588977E2,2.27426E1,1.8049341E2,2.3656396E2,3.5398486E2,0E0,0E0,0E0,0E0,0E0,0E0,0E0,0E0,0E0,0E0,0E0,0E0,0E0,0E0,0E0,0E0,0E0,0E0,0E0,0E0,0E0,0E0,0E0,0E0,0E0,0E0,0E0,0E0,0E0,0E0,0E0,0E0,0E0,0E0,0E0,0E0,0E0,0E0,0E0,0E0,0E0,0E0,0E0,0E0,0E0,0E0,0E0,0E0,0E0,0E0,0E0,0E0,0E0,0E0,0E0,0E0,0E0,0E0,0E0,0E0,0E0,0E0],"parents":[2147483647,0,0,1,1,2,2,3,3,4,4,5,5,6,6,7,7,8,8,9,9,10,10,11,11,12,12,13,13,14,14,15,15,16,16,17,17,18,18,19,19,20,20,21,21,22,22,23,23,24,24,25,25,26,26,27,27,28,28,29,29,30,30,31,31,32,32,34,34,35,35,36,36,37,37,38,38,39,39,40,40,41,41,42,42,43,43,44,44,45,45,46,46,47,47,48,48,49,49,50,50,51,51,52,52,53,53,54,54,55,55,56,56,57,57,58,58,59,59,60,60,61,61,62,62],"right_children":[2,4,6,8,10,12,14,16,18,20,22,24,26,28,30,32,34,36,38,40,42,44,46,48,50,52,54,56,58,60,62,64,66,-1,68,70,72,74,76,78,80,82,84,86,88,90,92,94,96,98,100,102,104,106,108,110,112,114,116,118,120,122,124,-1,-1,-1,-1,-1,-1,-1,-1,-1,-1,-1,-1,-1,-1,-1,-1,-1,-1,-1,-1,-1,-1,-1,-1,-1,-1,-1,-1,-1,-1,-1,-1,-1,-1,-1,-1,-1,-1,-1,-1,-1,-1,-1,-1,-1,-1,-1,-1,-1,-1,-1,-1,-1,-1,-1,-1,-1,-1,-1,-1,-1,-1],"split_conditions":[7.0333487E-1,2E0,7.556356E-2,-4.573926E-1,4E0,1E0,3.1223673E-2,2E0,1.0648465E0,1E0,-7.608001E-1,-7.655408E-1,-4.9690312E-1,2.2740549E-1,-8.6031157E-1,-1.4014521E0,-1.7950646E0,-2.2171736E0,3.7280408E-1,-1.2282641E-1,2E0,2.1268005E0,-1.0155479E0,1.0929708E0,2E0,9.65942E-1,1.6380891E0,-1.2629293E0,-6.452726E-1,-8.535415E-1,6.899236E-1,-1.362892E0,-2.2725582E-1,1.1118656E0,-7.271144E-1,-4.3267587E-1,1E0,9.5409495E-1,2.0527425E-1,-1.3110932E0,2.5346857E-1,-1.0260552E0,-3.6317337E-1,1.436076E-1,-1.080849E0,-5.7949597E-1,-1.6116743E-1,-1.0072714E0,-8.944244E-1,-6.063735E-1,7.966059E-1,-8.470808E-2,9.280311E-1,-1.5225568E0,4E0,1E0,-7.228016E-1,-1.817775E0,-8.0217814E-1,4.4264415E-1,1.5376766E0,-1.6270754E-1,1.2409387E0,-3.412755E-1,8.2347953E-1,-7.852452E-1,-1.6139148E0,-5.206387E-1,-2.0240765E0,-2.90175E0,-7.6339006E-1,-9.4649273E-1,-3.262386E-1,6.1908655E-2,-1.7040477E0,4.3611422E-1,1.8254881E0,-6.0651916E-1,6.8498814E-1,1.833876E0,5.0322455E-1,-1.3223976E0,-2.916396E-1,-2.3688917E-1,5.50136E-1,-8.463784E-1,-1.687342E0,3.855034E-2,1.5312773E0,-3.075407E-1,-1.2092853E0,-4.7068024E-1,1.624839E-1,1.0958403E0,-6.6665304E-1,1.6918526E0,-4.910677E-1,-1.1835122E0,5.8515036E-1,1.9932035E0,5.878138E-2,-2.5317872E-1,9.3016243E-1,1.96156E0,-5.966057E-1,1.1180398E0,-3.0383092E-1,-2.6040864E0,-9.268337E-1,1.2826759E0,-7.143454E-1,-6.2345475E-2,1.3609282E0,2.9100976E0,4.9122846E-1,-1.0572627E0,9.505499E-2,-8.609159E-1,-2.2844973E0,1.2080073E0,-4.493638E-1,4.7947663E-1,1.4847547E0,1.5955399E0,3.0146325E0],"split_indices":[17,4,13,18,4,6,14,12,16,6,18,16,5,20,18,20,14,31,10,13,6,11,14,30,4,15,20,18,32,23,13,18,25,0,22,1,4,28,31,17,5,16,18,19,14,19,13,28,16,3,19,16,20,19,4,6,11,23,21,0,31,16,18,0,0,0,0,0,0,0,0,0,0,0,0,0,0,0,0,0,0,0,0,0,0,0,0,0,0,0,0,0,0,0,0,0,0,0,0,0,0,0,0,0,0,0,0,0,0,0,0,0,0,0,0,0,0,0,0,0,0,0,0,0,0],"split_type":[0,0,0,0,0,0,0,0,0,0,0,0,0,0,0,0,0,0,0,0,0,0,0,0,0,0,0,0,0,0,0,0,0,0,0,0,0,0,0,0,0,0,0,0,0,0,0,0,0,0,0,0,0,0,0,0,0,0,0,0,0,0,0,0,0,0,0,0,0,0,0,0,0,0,0,0,0,0,0,0,0,0,0,0,0,0,0,0,0,0,0,0,0,0,0,0,0,0,0,0,0,0,0,0,0,0,0,0,0,0,0,0,0,0,0,0,0,0,0,0,0,0,0,0,0],"sum_hessian":[4E3,2.905E3,1.095E3,6.77E2,2.228E3,5.86E2,5.09E2,2.18E2,4.59E2,1.322E3,9.06E2,1.44E2,4.42E2,2.58E2,2.51E2,1.57E2,6.1E1,3.91E2,6.8E1,3.6E2,9.62E2,2.09E2,6.97E2,3.7E1,1.07E2,1.43E2,2.99E2,1.36E2,1.22E2,4E1,2.11E2,1.2E1,1.45E2,1E0,6E1,9E0,3.82E2,3.9E1,2.9E1,1.64E2,1.96E2,3.36E2,6.26E2,1.98E2,1.1E1,1.27E2,5.7E2,3.1E1,6E0,2.2E1,8.5E1,1.2E2,2.3E1,2.89E2,1E1,2.2E1,1.14E2,4.3E1,7.9E1,7E0,3.3E1,8.7E1,1.24E2,4E0,8E0,9.3E1,5.2E1,8E0,5.2E1,8E0,1E0,1.65E2,2.17E2,3.5E1,4E0,1.4E1,1.5E1,3.2E1,1.32E2,1.16E2,8E1,7.3E1,2.63E2,2.4E2,3.86E2,1.08E2,9E1,4E0,7E0,3.8E1,8.9E1,2.48E2,3.22E2,3E0,2.8E1,4E0,2E0,8E0,1.4E1,6.5E1,2E1,6.8E1,5.2E1,2.1E1,2E0,1.8E1,2.71E2,7E0,3E0,6E0,1.6E1,1.7E1,9.7E1,4E0,3.9E1,2.1E1,5.8E1,5E0,2E0,2.6E1,7E0,4E1,4.7E1,1.04E2,2E1],"tree_param":{"num_deleted":"0","num_feature":"33","num_nodes":"125","size_leaf_vector":"1"}},{"base_weights":[-3.538435E-3,-1.6424252E0,4.4504404E-1,-2.8897583E0,-8.641532E-1,7.6210566E-2,2.3845742E0,-7.4955285E-1,-3.5054836E0,-6.6166177E0,-6.610238E-1,-5.676462E-1,1.330784E0,-1.1233938E0,2.775109E0,5.331734E-1,-2.012554E0,-4.758507E0,-2.4497664E0,-7.57299E0,-1.3760672E0,-2.7758484E0,-1.7490402E-1,-1.6449921E0,2.4336387E-1,2.505911E0,1.7606613E-1,2.9563937E-1,-4.548783E0,3.549439E0,1.223475E0,-3.6979237E-1,3.4838178E0,-8.913257E-1,-3.3451698E0,-7.3791733E0,-3.9194343E0,-1.7580936E0,-4.847377E0,-6.0813904E-1,-7.824328E0,-7.9284614E-1,-7.287598E-2,-4.203004E0,3.5215524E-1,5.377425E-1,-1.711405E0,9.6506745E-1,-2.1938193E0,8.091432E-1,-1.4061161E0,3.3755908E0,7.0769066E-1,-2.4655738E0,6.900274E-1,-2.0041728E0,2.3506885E0,-2.9952736E0,-2.4216342E0,1.6502829E0,4.573338E0,2.8612018E0,-2.0947714E-1,-5.973881E-1,2.961942E-1,1.5038255E0,9.583884E-2,-7.6648897E-1,-7.551859E-2,-1.2424804E0,5.2561283E-1,2.762109E-1,-2.3201435E0,-1.3173912E0,-3.9403517E-2,7.448232E-2,-7.94174E-1,-1.8111882E0,-6.4051384E-1,-1.5549928E0,-2.7471535E0,2.9848196E-2,-6.264239E-2,-1.4028375E0,1.2898213E0,2.24001E0,-1.1879263E-1,-1.2600316E0,2.3882823E-1,-7.040483E-1,6.234592E-2,-1.5683588E0,4.394323E-1,-1.2437172E0,-5.1219517E-1,7.9516226E-1,8.6123124E-2,-7.2407514E-1,-4.1659757E-2,7.8228194E-1,1.8464369E0,8.437876E-1,-7.739977E-2,-1.0807564E0,-2.791665E-2,9.3901366E-1,2.6918642E-2,-1.234248E0,3.4427428E-1,1.4134082E0,-1.443358E-1,-5.8586027E-2,-1.1720712E0,6.696596E-1,-6.202842E-1,1.8248588E0,1.0610279E0,3.8515565E-1,1.6625553E0,-3.2589626E-1,1.133854E0],"categories":[],"categories_nodes":[],"categories_segments":[],"categories_sizes":[],"default_left":[0,0,0,0,0,0,0,0,0,0,0,0,0,0,0,0,0,0,0,0,0,0,0,0,0,0,0,0,0,0,0,0,0,0,0,0,0,0,0,0,0,0,0,0,0,0,0,0,0,0,0,0,0,0,0,0,0,0,0,0,0,0,0,0,0,0,0,0,0,0,0,0,0,0,0,0,0,0,0,0,0,0,0,0,0,0,0,0,0,0,0,0,0,0,0,0,0,0,0,0,0,0,0,0,0,0,0,0,0,0,0,0,0,0,0,0,0,0,0,0,0],"id":5,"left_children":[1,3,5,7,9,11,13,15,17,19,21,23,25,27,29,31,33,35,37,39,41,43,45,47,49,51,53,55,57,59,61,63,65,67,69,71,73,75,77,-1,79,-1,81,83,85,87,89,91,93,95,97,99,101,103,105,107,109,111,-1,113,115,117,119,-1,-1,-1,-1,-1,-1,-1,-1,-1,-1,-1,-1,-1,-1,-1,-1,-1,-1,-1,-1,-1,-1,-1,-1,-1,-1,-1,-1,-1,-1,-1,-1,-1,-1,-1,-1,-1,-1,-1,-1,-1,-1,-1,-1,-1,-1,-1,-1,-1,-1,-1,-1,-1,-1,-1,-1,-1,-1],"loss_changes":[2.9421697E3,8.3236035E2,2.247491E3,4.3223926E2,6.16097E2,2.1340645E3,6.908496E2,1.2257939E2,3.2698926E2,7.979352E1,5.2793634E2,1.5259475E3,1.2153772E3,2.4924255E2,5.387246E2,1.0253287E2,5.3796707E1,2.2615356E2,2.2530688E2,5.0473633E0,6.4106884E0,4.3003827E2,4.5971777E2,1.0764708E3,9.315798E2,6.919719E2,6.167397E2,1.7958159E2,5.7924713E1,5.777605E2,3.573105E2,6.798251E1,4.1941406E1,2.2766111E1,7.626909E1,8.659363E1,1.6029688E2,1.986777E2,8.716101E1,0E0,1.8166504E0,0E0,9.10669E-2,2.856007E2,1.679575E2,3.5464038E2,1.6268365E2,4.1305667E2,5.8167725E2,7.135083E2,3.2522684E2,6.221306E2,2.9750192E2,1.9927454E2,5.563201E2,1.2442422E2,1.359661E2,2.9867668E1,0E0,2.3611014E2,2.8361035E2,2.930959E2,2.909189E2,0E0,0E0,0E0,0E0,0E0,0E0,0E0,0E0,0E0,0E0,0E0,0E0,0E0,0E0,0E0,0E0,0E0,0E0,0E0,0E0,0E0,0E0,0E0,0E0,0E0,0E0,0E0,0E0,0E0,0E0,0E0,0E0,0E0,0E0,0E0,0E0,0E0,0E0,0E0,0E0,0E0,0E0,0E0,0E0,0E0,0E0,0E0,0E0,0E0,0E0,0E0,0E0,0E0,0E0,0E0,0E0,0E0,0E0],"parents":[2147483647,0,0,1,1,2,2,3,3,4,4,5,5,6,6,7,7,8,8,9,9,10,10,11,11,12,12,13,13,14,14,15,15,16,16,17,17,18,18,19,19,20,20,21,21,22,22,23,23,24,24,25,25,26,26,27,27,28,28,29,29,30,30,31,31,32,32,33,33,34,34,35,35,36,36,37,37,38,38,40,40,42,42,43,43,44,44,45,45,46,46,47,47,48,48,49,49,50,50,51,51,52,52,53,53,54,54,55,55,56,56,57,57,59,59,60,60,61,61,62,62],"right_children":[2,4,6,8,10,12,14,16,18,20,22,24,26,28,30,32,34,36,38,40,42,44,46,48,50,52,54,56,58,60,62,64,66,68,70,72,74,76,78,-1,80,-1,82,84,86,88,90,92,94,96,98,100,102,104,106,108,110,112,-1,114,116,118,120,-1,-1,-1,-1,-1,-1,-1,-1,-1,-1,-1,-1,-1,-1,-1,-1,-1,-1,-1,-1,-1,-1,-1,-1,-1,-1,-1,-1,-1,-1,-1,-1,-1,-1,-1,-1,-1,-1,-1,-1,-1,-1,-1,-1,-1,-1,-1,-1,-1,-1,-1,-1,-1,-1,-1,-1,-1,-1],"split_conditions":[-8.846534E-1,-1.0401048E-2,1.0630432E0,-8.466623E-1,-1.6640353E0,5.0228775E-1,1E0,-1.4032975E-1,-2.3457871E-1,2E0,-1.029626E0,-1.053212E-1,-1.2993512E-2,2E0,2E0,8.807241E-1,1.905684E-1,-7.836004E-1,8.190691E-1,-1.9323874E0,-3.684372E-1,-1.1552763E0,2E0,-1.0269079E0,7.535085E-1,2E0,-1.0567483E0,1.2100329E-1,8.672343E-1,-5.028797E-1,1.07731126E-1,-4.6701837E-1,3.134673E-1,-5.2418333E-1,1.9830756E0,-1.8283368E0,1.1412023E0,-6.6475505E-1,3.9573112E-1,-6.0813904E-1,-5.080466E-1,-7.9284614E-1,-1.8394105E-1,2.1377213E0,-1.7005535E0,1E0,6.935857E-1,-1.5500048E0,-4.4979978E-1,-9.120808E-1,5.385176E-1,9.2318267E-1,1E0,3.7280408E-1,-7.3848677E-1,3.7280408E-1,-2.9901674E-1,-2.6036438E-1,-2.4216342E0,1.1068665E0,-4.1506132E-1,7.019995E-1,1.1632344E0,-5.973881E-1,2.961942E-1,1.5038255E0,9.583884E-2,-7.6648897E-1,-7.551859E-2,-1.2424804E0,5.2561283E-1,2.762109E-1,-2.3201435E0,-1.3173912E0,-3.9403517E-2,7.448232E-2,-7.94174E-1,-1.8111882E0,-6.4051384E-1,-1.5549928E0,-2.7471535E0,2.9848196E-2,-6.264239E-2,-1.4028375E0,1.2898213E0,2.24001E0,-1.1879263E-1,-1.2600316E0,2.3882823E-1,-7.040483E-1,6.234592E-2,-1.5683588E0,4.394323E-1,-1.2437172E0,-5.1219517E-1,7.9516226E-1,8.6123124E-2,-7.2407514E-1,-4.1659757E-2,7.8228194E-1,1.8464369E0,8.437876E-1,-7.739977E-2,-1.0807564E0,-2.791665E-2,9.3901366E-1,2.6918642E-2,-1.234248E0,3.4427428E-1,1.4134082E0,-1.443358E-1,-5.8586027E-2,-1.1720712E0,6.696596E-1,-6.202842E-1,1.8248588E0,1.0610279E0,3.8515565E-1,1.6625553E0,-3.2589626E-1,1.133854E0],"split_indices":[17,11,15,19,13,13,8,30,16,9,18,3,19,12,8,15,20,13,20,5,0,17,12,20,20,8,16,16,31,16,20,24,0,14,0,18,18,26,3,0,19,0,0,29,19,8,16,18,10,19,17,14,6,10,5,10,30,18,0,19,26,11,14,0,0,0,0,0,0,0,0,0,0,0,0,0,0,0,0,0,0,0,0,0,0,0,0,0,0,0,0,0,0,0,0,0,0,0,0,0,0,0,0,0,0,0,0,0,0,0,0,0,0,0,0,0,0,0,0,0,0],"split_type":[0,0,0,0,0,0,0,0,0,0,0,0,0,0,0,0,0,0,0,0,0,0,0,0,0,0,0,0,0,0,0,0,0,0,0,0,0,0,0,0,0,0,0,0,0,0,0,0,0,0,0,0,0,0,0,0,0,0,0,0,0,0,0,0,0,0,0,0,0,0,0,0,0,0,0,0,0,0,0,0,0,0,0,0,0,0,0,0,0,0,0,0,0,0,0,0,0,0,0,0,0,0,0,0,0,0,0,0,0,0,0,0,0,0,0,0,0,0,0,0,0],"sum_hessian":[4E3,8.59E2,3.141E3,3.29E2,5.3E2,2.64E3,5.01E2,7.4E1,2.55E2,1.7E1,5.13E2,1.745E3,8.95E2,5E1,4.51E2,3.7E1,3.7E1,1.15E2,1.4E2,1.4E1,3E0,9.5E1,4.18E2,7.49E2,9.96E2,4.43E2,4.52E2,3.6E1,1.4E1,3E2,1.51E2,2.9E1,8E0,2.1E1,1.6E1,2.6E1,8.9E1,1.1E2,3E1,1E0,1.3E1,1E0,2E0,6.5E1,3E1,2.86E2,1.32E2,1.3E2,6.19E2,7.42E2,2.54E2,2.98E2,1.45E2,7.3E1,3.79E2,1.7E1,1.9E1,1.1E1,3E0,1.06E2,1.94E2,7E1,8.1E1,1.3E1,1.6E1,5E0,3E0,5E0,1.6E1,1.4E1,2E0,1E0,2.5E1,7.9E1,1E1,3.4E1,7.6E1,2E1,1E1,6E0,7E0,1E0,1E0,6.2E1,3E0,2E0,2.8E1,1.4E1,2.72E2,9.9E1,3.3E1,9E0,1.21E2,1.22E2,4.97E2,1.63E2,5.79E2,1.41E2,1.13E2,2.35E2,6.3E1,4.5E1,1E2,4.9E1,2.4E1,7.4E1,3.05E2,1E1,7E0,1E1,9E0,3E0,8E0,9.2E1,1.4E1,7.7E1,1.17E2,4.5E1,2.5E1,6.7E1,1.4E1],"tree_param":{"num_deleted":"0","num_feature":"33","num_nodes":"121","size_leaf_vector":"1"}},{"base_weights":[-4.781865E-3,5.24623E-1,-1.1867448E0,1.352199E-1,2.1968575E0,-1.6765922E0,3.436989E-1,-4.238321E-1,1.220175E0,1.2336158E0,3.45299E0,-3.0587635E0,-1.1363738E0,1.9612952E0,-2.114061E-1,-1.1400783E0,4.8114422E-1,8.7568843E-1,4.7856526E0,-1.06641E0,1.882616E0,4.7787428E-1,4.3616796E0,-4.6458106E0,-1.9404311E0,-1.8957351E0,-2.064761E-1,9.5411205E-1,7.917657E0,1.4358439E-1,-3.190434E0,-2.191405E0,-2.8826404E-1,-2.972874E-1,1.6801157E0,-3.1784546E-1,1.640298E0,6.3503594E0,1.7337662E-1,-1.7602477E0,4.1839447E0,6.839199E-1,3.0549762E0,-6.2067443E-1,3.3754792E0,8.058892E0,3.652928E0,-4.996714E0,2.1523325E0,-2.4279392E0,2.4770103E0,-2.6590517E0,-3.661491E-1,4.3560562E-1,-1.9009483E0,1.4492645E0,-4.321482E0,1.0092163E0,9.340731E0,-2.9419532E0,4.068198E-1,-5.1145405E-1,-5.8267927E0,-9.716662E-1,-3.734917E-1,4.538081E-1,-2.7963984E-1,-2.3633716E-1,4.636915E-1,3.9588407E-1,1.4961637E0,1.8073463E-1,-5.902127E-1,8.185699E-1,1.812513E-1,1.3935453E0,3.253898E0,-3.077088E-1,6.6124845E-1,-2.629606E-1,-1.4459413E0,1.4792682E0,-1.5670481E-1,6.241238E-1,-1.3313887E-1,-7.430756E-1,9.8181456E-1,3.3663088E-1,-7.81788E-1,5.9689716E-2,1.4831519E0,3.050489E0,1.2198837E0,1.9332777E0,8.646371E-1,-1.08666375E-1,-1.5992619E0,-4.283016E-1,1.8624684E0,-9.831608E-1,-1.6300502E-1,-3.6753067E-1,1.143942E0,-3.0029696E-1,-1.0241765E0,-1.9569814E-1,1.989777E0,-1.2821798E-2,8.0437297E-1,-8.59017E-1,5.361245E-1,1.9477117E-1,1.663345E0,-1.4406272E0,-2.8776628E-1,3.689953E-1,8.515206E-2,1.5883843E0,3.4556105E0,-1.1039095E0,4.444521E-1,-1.8106641E-1,3.6569393E-1,-7.153389E-1,4.3038592E-1,-2.0463538E0,-1.7097208E-1],"categories":[],"categories_nodes":[],"categories_segments":[],"categories_sizes":[],"default_left":[0,0,0,0,0,0,0,0,0,0,0,0,0,0,0,0,0,0,0,0,0,0,0,0,0,0,0,0,0,0,0,0,0,0,0,0,0,0,0,0,0,0,0,0,0,0,0,0,0,0,0,0,0,0,0,0,0,0,0,0,0,0,0,0,0,0,0,0,0,0,0,0,0,0,0,0,0,0,0,0,0,0,0,0,0,0,0,0,0,0,0,0,0,0,0,0,0,0,0,0,0,0,0,0,0,0,0,0,0,0,0,0,0,0,0,0,0,0,0,0,0,0,0,0,0,0,0],"id":6,"left_children":[1,3,5,7,9,11,13,15,17,19,21,23,25,27,29,31,33,35,37,39,41,43,45,47,49,51,53,55,57,59,61,63,65,67,69,71,73,75,77,79,81,83,85,87,89,91,93,95,97,99,101,103,105,107,109,111,113,115,117,119,121,123,125,-1,-1,-1,-1,-1,-1,-1,-1,-1,-1,-1,-1,-1,-1,-1,-1,-1,-1,-1,-1,-1,-1,-1,-1,-1,-1,-1,-1,-1,-1,-1,-1,-1,-1,-1,-1,-1,-1,-1,-1,-1,-1,-1,-1,-1,-1,-1,-1,-1,-1,-1,-1,-1,-1,-1,-1,-1,-1,-1,-1,-1,-1,-1,-1],"loss_changes":[2.5041958E3,1.7995459E3,9.2868506E2,1.3610006E3,6.2733887E2,6.9690454E2,2.7069333E2,9.6051184E2,9.329712E2,4.453447E2,6.088967E2,4.5776953E2,4.7695148E2,4.5438004E2,2.3840158E2,7.399758E2,6.1182227E2,6.365949E2,4.8242847E2,2.4779578E2,3.2394104E2,1.7398573E2,4.2389136E2,2.683877E2,3.4196594E2,4.3335803E2,3.3266492E2,1.8128198E2,9.871661E1,1.6526584E2,1.6652592E2,3.6277502E2,5.3249774E2,3.6099402E2,3.0101056E2,4.156137E2,4.775746E2,3.329452E2,4.6091854E1,1.5529759E2,3.0698547E1,1.8360558E2,1.4903381E2,1.4132059E2,7.374509E1,1.8604785E2,2.9770776E2,1.5758057E2,9.5984055E1,2.2389154E2,8.381551E1,3.0698462E2,2.5468729E2,2.3858463E2,3.0327625E2,1.9953006E2,5.0893173E0,1.3130045E-1,1.8323853E1,5.7665665E1,1.5418524E2,5.0805973E1,5.8841064E1,0E0,0E0,0E0,0E0,0E0,0E0,0E0,0E0,0E0,0E0,0E0,0E0,0E0,0E0,0E0,0E0,0E0,0E0,0E0,0E0,0E0,0E0,0E0,0E0,0E0,0E0,0E0,0E0,0E0,0E0,0E0,0E0,0E0,0E0,0E0,0E0,0E0,0E0,0E0,0E0,0E0,0E0,0E0,0E0,0E0,0E0,0E0,0E0,0E0,0E0,0E0,0E0,0E0,0E0,0E0,0E0,0E0,0E0,0E0,0E0,0E0,0E0,0E0,0E0],"parents":[2147483647,0,0,1,1,2,2,3,3,4,4,5,5,6,6,7,7,8,8,9,9,10,10,11,11,12,12,13,13,14,14,15,15,16,16,17,17,18,18,19,19,20,20,21,21,22,22,23,23,24,24,25,25,26,26,27,27,28,28,29,29,30,30,31,31,32,32,33,33,34,34,35,35,36,36,37,37,38,38,39,39,40,40,41,41,42,42,43,43,44,44,45,45,46,46,47,47,48,48,49,49,50,50,51,51,52,52,53,53,54,54,55,55,56,56,57,57,58,58,59,59,60,60,61,61,62,62],"right_children":[2,4,6,8,10,12,14,16,18,20,22,24,26,28,30,32,34,36,38,40,42,44,46,48,50,52,54,56,58,60,62,64,66,68,70,72,74,76,78,80,82,84,86,88,90,92,94,96,98,100,102,104,106,108,110,112,114,116,118,120,122,124,126,-1,-1,-1,-1,-1,-1,-1,-1,-1,-1,-1,-1,-1,-1,-1,-1,-1,-1,-1,-1,-1,-1,-1,-1,-1,-1,-1,-1,-1,-1,-1,-1,-1,-1,-1,-1,-1,-1,-1,-1,-1,-1,-1,-1,-1,-1,-1,-1,-1,-1,-1,-1,-1,-1,-1,-1,-1,-1,-1,-1,-1,-1,-1,-1],"split_conditions":[2E0,9.9718285E-1,7.2489184E-1,7.019995E-1,1E0,-6.063735E-1,-7.261307E-1,3.7280408E-1,1.4281559E0,-7.2987056E-1,-7.424486E-1,-2.2653222E-1,8.573747E-2,1.233054E0,1.3247231E0,-1.053212E-1,3.7882042E-1,-4.2270717E-1,2.6702532E-1,1.3900492E0,-1.5116844E-2,6.5587276E-1,-1.2657506E0,2.154556E0,1.3367271E0,7.019995E-1,2E0,7E0,-5.077843E-1,1E0,2E0,-4.7945872E-2,1E0,8.438551E-1,1.5805378E0,2E0,-8.1699274E-2,7.63706E-1,6E0,8.409367E-1,1.3335915E0,-4.43673E-1,-2.0566175E0,-9.471876E-3,1.3705769E0,2.5425732E-1,-7.8953195E-1,-1.4648691E0,3.9245866E-2,5.6057125E-1,-5.8710825E-1,1E0,1.5820644E0,1.1632344E0,1.2797581E0,1.3575026E0,2.7831396E-1,-3.5692653E-1,1.3645087E0,1.4318299E0,-1.3111043E-1,-6.702353E-1,7.2238874E-1,-9.716662E-1,-3.734917E-1,4.538081E-1,-2.7963984E-1,-2.3633716E-1,4.636915E-1,3.9588407E-1,1.4961637E0,1.8073463E-1,-5.902127E-1,8.185699E-1,1.812513E-1,1.3935453E0,3.253898E0,-3.077088E-1,6.6124845E-1,-2.629606E-1,-1.4459413E0,1.4792682E0,-1.5670481E-1,6.241238E-1,-1.3313887E-1,-7.430756E-1,9.8181456E-1,3.3663088E-1,-7.81788E-1,5.9689716E-2,1.4831519E0,3.050489E0,1.2198837E0,1.9332777E0,8.646371E-1,-1.08666375E-1,-1.5992619E0,-4.283016E-1,1.8624684E0,-9.831608E-1,-1.6300502E-1,-3.6753067E-1,1.143942E0,-3.0029696E-1,-1.0241765E0,-1.9569814E-1,1.989777E0,-1.2821798E-2,8.0437297E-1,-8.59017E-1,5.361245E-1,1.9477117E-1,1.663345E0,-1.4406272E0,-2.8776628E-1,3.689953E-1,8.515206E-2,1.5883843E0,3.4556105E0,-1.1039095E0,4.444521E-1,-1.8106641E-1,3.6569393E-1,-7.153389E-1,4.3038592E-1,-2.0463538E0,-1.7097208E-1],"split_indices":[12,18,16,11,12,3,5,10,17,13,17,17,13,17,19,3,17,18,19,15,16,0,5,26,14,11,8,7,32,8,8,14,6,14,32,8,5,15,7,26,2,32,14,20,18,19,20,5,5,2,1,6,17,14,13,22,1,0,16,29,17,28,25,0,0,0,0,0,0,0,0,0,0,0,0,0,0,0,0,0,0,0,0,0,0,0,0,0,0,0,0,0,0,0,0,0,0,0,0,0,0,0,0,0,0,0,0,0,0,0,0,0,0,0,0,0,0,0,0,0,0,0,0,0,0,0,0],"split_type":[0,0,0,0,0,0,0,0,0,0,0,0,0,0,0,0,0,0,0,0,0,0,0,0,0,0,0,0,0,0,0,0,0,0,0,0,0,0,0,0,0,0,0,0,0,0,0,0,0,0,0,0,0,0,0,0,0,0,0,0,0,0,0,0,0,0,0,0,0,0,0,0,0,0,0,0,0,0,0,0,0,0,0,0,0,0,0,0,0,0,0,0,0,0,0,0,0,0,0,0,0,0,0,0,0,0,0,0,0,0,0,0,0,0,0,0,0,0,0,0,0,0,0,0,0,0,0],"sum_hessian":[4E3,2.763E3,1.237E3,2.242E3,5.21E2,9.37E2,3E2,1.48E3,7.62E2,2.96E2,2.25E2,2.62E2,6.75E2,7.6E1,2.24E2,8.26E2,6.54E2,6.96E2,6.6E1,6.5E1,2.31E2,5.3E1,1.72E2,1.07E2,1.55E2,3.71E2,3.04E2,6.6E1,1E1,2.01E2,2.3E1,3.69E2,4.57E2,3.97E2,2.57E2,2.72E2,4.24E2,4.9E1,1.7E1,5.8E1,7E0,1.15E2,1.16E2,3.9E1,1.4E1,2.6E1,1.46E2,1.02E2,5E0,1.4E2,1.5E1,2.47E2,1.24E2,2.21E2,8.3E1,6.1E1,5E0,2E0,8E0,1.5E1,1.86E2,1.2E1,1.1E1,1.74E2,1.95E2,1.2E2,3.37E2,3.14E2,8.3E1,2.33E2,2.4E1,1.75E2,9.7E1,2.06E2,2.18E2,3.7E1,1.2E1,1.1E1,6E0,4.6E1,1.2E1,6E0,1E0,5.1E1,6.4E1,4E0,1.12E2,2.1E1,1.8E1,5E0,9E0,1.6E1,1E1,3E1,1.16E2,7E0,9.5E1,3E0,2E0,9.6E1,4.4E1,4E0,1.1E1,7.8E1,1.69E2,1.2E2,4E0,1.83E2,3.8E1,6.6E1,1.7E1,5.2E1,9E0,4E0,1E0,1E0,1E0,4E0,4E0,1.3E1,2E0,8.3E1,1.03E2,6E0,6E0,9E0,2E0],"tree_param":{"num_deleted":"0","num_feature":"33","num_nodes":"127","size_leaf_vector":"1"}},{"base_weights":[1.1502168E-3,-2.424244E0,2.0622388E-1,-2.739794E0,-1.4514199E-1,8.028489E-1,-9.017557E-1,-3.1806102E0,-8.8497597E-1,-1.1019624E0,1.8532653E0,1.2006594E0,-6.056698E-1,-1.1665428E0,1.3762088E0,-3.7142873E0,-1.3747303E0,-2.86658E0,3.6498466E-1,-1.7393762E0,1.4188818E0,1.5382794E-1,9.8638517E-1,8.467896E-2,1.693242E0,-3.104788E0,-1.6003619E-1,-2.1495104E0,-6.187372E-1,4.0456924E0,5.7496876E-1,6.991015E-1,-3.9944935E0,2.3075368E0,-2.0966775E0,-4.627632E0,-8.4493005E-1,-1.1722245E0,2.167609E0,-4.8425835E-2,-3.4259243E0,3.148276E-1,5.6766057E-1,-3.0521435E-1,8.257877E-1,8.143243E-1,-8.2485837E-1,2.9065686E-1,2.1633573E0,-4.2451706E0,-5.7302594E-1,2.659758E0,-5.0334436E-1,-3.6203775E0,-1.4558568E0,-1.4642874E0,6.058739E-1,4.5714154E0,-7.154587E-1,5.3213973E0,2.3355491E-1,-1.6707116E-1,6.9530666E-1,-1.5035464E0,-9.043171E-1,-7.738188E-1,9.722484E-1,7.2824436E-1,-7.829341E-1,-1.6325403E0,-1.927744E-1,3.1925717E-1,-4.1622674E-1,6.105877E-1,-6.489746E-1,1.1601813E0,-7.035305E-1,-3.5351473E-1,5.3075695E-1,-1.1763432E0,2.2894078E-1,1.2534343E-1,1.6329003E-2,2.9924E-1,2.0860864E-2,7.432572E-1,1.11196086E-1,-3.9609316E-1,4.7769815E-1,-1.0641838E-1,6.31008E-1,1.1135099E0,4.0519983E-1,-1.8422116E0,-8.386196E-1,-7.5047034E-1,3.7760794E-1,-3.410877E-1,1.2632788E0,1.4421366E-1,-3.4476346E-1,-1.2314512E0,-3.0344892E-1,-5.9393E-1,3.2594505E-1,1.3624227E-1,-6.3096106E-1,2.7133045E-1,-1.1807568E0,8.7989485E-1,2.0957558E0,2.6135218E-1,1.7753718E0,2.882902E-1,-4.9358264E-1],"categories":[],"categories_nodes":[],"categories_segments":[],"categories_sizes":[],"default_left":[0,0,0,0,0,0,0,0,0,0,0,0,0,0,0,0,0,0,0,0,0,0,0,0,0,0,0,0,0,0,0,0,0,0,0,0,0,0,0,0,0,0,0,0,0,0,0,0,0,0,0,0,0,0,0,0,0,0,0,0,0,0,0,0,0,0,0,0,0,0,0,0,0,0,0,0,0,0,0,0,0,0,0,0,0,0,0,0,0,0,0,0,0,0,0,0,0,0,0,0,0,0,0,0,0,0,0,0,0,0,0,0,0,0,0],"id":7,"left_children":[1,3,5,7,9,11,13,15,17,19,21,23,25,27,29,31,33,35,37,39,41,43,-1,45,47,49,51,53,55,57,59,61,63,65,67,69,71,73,75,77,79,81,-1,-1,83,85,87,89,91,93,95,97,99,101,103,105,107,109,-1,111,113,-1,-1,-1,-1,-1,-1,-1,-1,-1,-1,-1,-1,-1,-1,-1,-1,-1,-1,-1,-1,-1,-1,-1,-1,-1,-1,-1,-1,-1,-1,-1,-1,-1,-1,-1,-1,-1,-1,-1,-1,-1,-1,-1,-1,-1,-1,-1,-1,-1,-1,-1,-1,-1,-1],"loss_changes":[1.990535E3,2.2398352E2,2.439992E3,2.212168E2,7.661479E1,1.3449434E3,7.809082E2,2.0788428E2,1.3480032E2,4.5852135E1,3.1190273E1,1.0283689E3,5.886457E2,6.2222424E2,2.8642493E2,2.1302441E2,1.4307509E2,7.085483E1,9.675529E1,6.257522E1,2.539709E0,6.349178E0,0E0,3.816009E2,8.552422E2,2.2854163E2,4.3696512E2,4.1712183E2,7.723124E2,1.1570361E2,1.6890929E2,2.3653225E1,1.4442627E2,4.9407753E1,1.0847496E2,3.219275E1,1.2869001E1,6.4798645E1,1.3179047E2,2.6730703E1,2.5811905E1,5.770871E-2,0E0,0E0,5.7980204E-1,2.3447595E2,3.0868787E2,3.8330048E2,1.2180781E3,1.3397931E2,9.499491E1,2.9336624E2,2.5605148E2,1.626825E2,3.7909485E2,5.4149536E2,4.171346E2,9.423157E1,0E0,1.3426636E1,1.3688281E2,0E0,0E0,0E0,0E0,0E0,0E0,0E0,0E0,0E0,0E0,0E0,0E0,0E0,0E0,0E0,0E0,0E0,0E0,0E0,0E0,0E0,0E0,0E0,0E0,0E0,0E0,0E0,0E0,0E0,0E0,0E0,0E0,0E0,0E0,0E0,0E0,0E0,0E0,0E0,0E0,0E0,0E0,0E0,0E0,0E0,0E0,0E0,0E0,0E0,0E0,0E0,0E0,0E0,0E0],"parents":[2147483647,0,0,1,1,2,2,3,3,4,4,5,5,6,6,7,7,8,8,9,9,10,10,11,11,12,12,13,13,14,14,15,15,16,16,17,17,18,18,19,19,20,20,21,21,23,23,24,24,25,25,26,26,27,27,28,28,29,29,30,30,31,31,32,32,33,33,34,34,35,35,36,36,37,37,38,38,39,39,40,40,41,41,44,44,45,45,46,46,47,47,48,48,49,49,50,50,51,51,52,52,53,53,54,54,55,55,56,56,57,57,59,59,60,60],"right_children":[2,4,6,8,10,12,14,16,18,20,22,24,26,28,30,32,34,36,38,40,42,44,-1,46,48,50,52,54,56,58,60,62,64,66,68,70,72,74,76,78,80,82,-1,-1,84,86,88,90,92,94,96,98,100,102,104,106,108,110,-1,112,114,-1,-1,-1,-1,-1,-1,-1,-1,-1,-1,-1,-1,-1,-1,-1,-1,-1,-1,-1,-1,-1,-1,-1,-1,-1,-1,-1,-1,-1,-1,-1,-1,-1,-1,-1,-1,-1,-1,-1,-1,-1,-1,-1,-1,-1,-1,-1,-1,-1,-1,-1,-1,-1,-1],"split_conditions":[1E0,1.3415055E0,2E0,1.001912E0,3.451502E-1,6E0,1.3301189E0,9.61004E-1,-1.0401048E-2,9.5243514E-1,3.0635348E-1,-5.4201007E-1,-7.228016E-1,-4.474787E-1,-8.290266E-1,-1.6181452E0,-1.0607349E0,-4.1506132E-1,3.5028577E-1,-4.2115316E-1,1E0,5.89345E-1,9.8638517E-1,3.2115486E-1,2E0,4.1820118E-1,-1.0523852E0,-4.4817376E-1,3.9573112E-1,1.8988881E0,-1.4947912E0,-3.064001E-1,-1.383641E-1,-7.228016E-1,-1.5483892E0,3.7299296E-1,-1.5248249E0,-1.343435E0,5.1842326E-1,-7.1703357E-1,1.0214052E0,-9.164805E-1,5.6766057E-1,-3.0521435E-1,5E0,-8.9711154E-1,1.0012498E0,5.3284514E-1,3E0,-2.59408E-1,3.7280408E-1,-6.063735E-1,-1.7535293E-1,9.8257875E-1,8.807241E-1,-7.8222275E-1,1.5631163E0,4.4159654E-1,-7.154587E-1,-9.080882E-1,2E0,-1.6707116E-1,6.9530666E-1,-1.5035464E0,-9.043171E-1,-7.738188E-1,9.722484E-1,7.2824436E-1,-7.829341E-1,-1.6325403E0,-1.927744E-1,3.1925717E-1,-4.1622674E-1,6.105877E-1,-6.489746E-1,1.1601813E0,-7.035305E-1,-3.5351473E-1,5.3075695E-1,-1.1763432E0,2.2894078E-1,1.2534343E-1,1.6329003E-2,2.9924E-1,2.0860864E-2,7.432572E-1,1.11196086E-1,-3.9609316E-1,4.7769815E-1,-1.0641838E-1,6.31008E-1,1.1135099E0,4.0519983E-1,-1.8422116E0,-8.386196E-1,-7.5047034E-1,3.7760794E-1,-3.410877E-1,1.2632788E0,1.4421366E-1,-3.4476346E-1,-1.2314512E0,-3.0344892E-1,-5.9393E-1,3.2594505E-1,1.3624227E-1,-6.3096106E-1,2.7133045E-1,-1.1807568E0,8.7989485E-1,2.0957558E0,2.6135218E-1,1.7753718E0,2.882902E-1,-4.9358264E-1],"split_indices":[8,16,8,15,2,7,17,18,11,18,17,14,11,16,19,15,28,26,17,32,6,1,0,20,4,16,26,18,3,3,5,14,14,11,1,29,2,17,30,2,1,0,0,0,4,19,13,2,4,0,10,3,5,28,15,5,30,1,0,2,9,0,0,0,0,0,0,0,0,0,0,0,0,0,0,0,0,0,0,0,0,0,0,0,0,0,0,0,0,0,0,0,0,0,0,0,0,0,0,0,0,0,0,0,0,0,0,0,0,0,0,0,0,0,0],"split_type":[0,0,0,0,0,0,0,0,0,0,0,0,0,0,0,0,0,0,0,0,0,0,0,0,0,0,0,0,0,0,0,0,0,0,0,0,0,0,0,0,0,0,0,0,0,0,0,0,0,0,0,0,0,0,0,0,0,0,0,0,0,0,0,0,0,0,0,0,0,0,0,0,0,0,0,0,0,0,0,0,0,0,0,0,0,0,0,0,0,0,0,0,0,0,0,0,0,0,0,0,0,0,0,0,0,0,0,0,0,0,0,0,0,0,0],"sum_hessian":[4E3,3.11E2,3.689E3,2.73E2,3.8E1,2.398E3,1.291E3,2.2E2,5.3E1,2.6E1,1.2E1,1.87E3,5.28E2,1.157E3,1.34E2,1.69E2,5.1E1,2E1,3.3E1,2.1E1,5E0,6E0,6E0,5.73E2,1.297E3,7.9E1,4.49E2,4.13E2,7.44E2,3E1,1.04E2,1E1,1.59E2,8E0,4.3E1,1E1,1E1,1.8E1,1.5E1,1.1E1,1E1,2E0,3E0,2E0,4E0,3.18E2,2.55E2,3.26E2,9.71E2,5.4E1,2.5E1,4.8E1,4.01E2,1.31E2,2.82E2,4.4E2,3.04E2,2.8E1,2E0,6E0,9.8E1,6E0,4E0,7.6E1,8.3E1,1E0,7E0,4E0,3.9E1,8E0,2E0,2E0,8E0,4E0,1.4E1,1.1E1,4E0,7E0,4E0,9E0,1E0,1E0,1E0,3E0,1E0,6.6E1,2.52E2,2.12E2,4.3E1,2.41E2,8.5E1,3.33E2,6.38E2,2.2E1,3.2E1,1.2E1,1.3E1,1.4E1,3.4E1,1.59E2,2.42E2,1.1E2,2.1E1,2.34E2,4.8E1,1.1E2,3.3E2,2.86E2,1.8E1,1.8E1,1E1,1E0,5E0,7.1E1,2.7E1],"tree_param":{"num_deleted":"0","num_feature":"33","num_nodes":"115","size_leaf_vector":"1"}},{"base_weights":[6.132716E-4,3.1871668E-1,-1.0355923E0,6.5078676E-1,-8.9314246E-1,-2.4183774E0,-6.197084E-1,-1.5517278E0,8.4050196E-1,-1.7982272E0,-1.5918864E-1,-7.625716E-1,-3.003492E0,-1.0959698E0,5.3567725E-1,-1.7945374E0,1.6462609E0,-3.3953592E-1,1.2232293E0,-1.1438121E0,-2.937351E0,-2.616837E0,2.9467916E-1,8.564567E-1,-2.2003205E0,-3.4378195E0,-5.206109E-1,-9.0400934E-1,-5.3390865E0,-6.2269455E-1,1.9154242E0,-2.6197534E0,-5.993725E-1,-1.0972399E0,3.2923434E0,-1.525152E0,1.6415346E-1,1.8340211E0,2.8155085E-1,-1.6193652E0,9.2227155E-1,-3.7308335E0,-7.763843E-1,-3.8145673E-1,-4.3513074E0,-3.2158088E-2,2.8542666E0,-2.1374846E0,2.3871386E0,2.046627E0,-3.7665036E0,-3.944586E0,-9.0855163E-1,-1.0302602E0,3.7949648E-1,-1.265799E0,9.2037565E-1,-6.424874E0,-1.3728418E0,-2.6175084E0,3.8269565E-1,4.741689E-1,3.260721E0,-1.1166909E0,-4.2732546E-1,-7.5915307E-1,1.691535E-1,-7.9019684E-1,-7.8927614E-2,1.1872505E0,4.41456E-1,-4.9398508E-2,-6.3931304E-1,2.5406724E-1,-3.9465815E-1,-1.9251656E-2,6.5298307E-1,-5.756316E-2,3.7602153E-1,-6.5706253E-1,9.377139E-2,5.0088143E-1,-5.7062846E-1,-1.3829997E0,-3.8502407E-1,1.171286E0,-4.3231866E-1,-6.4461994E-1,5.5782807E-1,-1.5039653E0,6.7695126E-2,2.3099932E-1,-2.83798E-1,1.2890389E0,-8.059455E-2,-1.4921771E-1,-1.1034296E0,-2.846775E-3,1.3635159E0,-6.640938E-1,1.074025E0,-1.6316726E0,-5.34067E-1,6.473257E-2,-1.2539682E0,-6.164349E-1,4.9222758E-1,-1.9504163E-1,1.079529E0,-5.32501E-1,1.070685E-1,8.145059E-2,1.1401734E0,-5.30966E-1,-2.1887853E0,-6.182289E-1,3.1001446E-1,-1.3274993E0,-3.910359E-1,-1.3645762E0,2.570432E-1,-6.757984E-1,4.6540603E-1,1.2395103E-1,1.3765779E0],"categories":[],"categories_nodes":[],"categories_segments":[],"categories_sizes":[],"default_left":[0,0,0,0,0,0,0,0,0,0,0,0,0,0,0,0,0,0,0,0,0,0,0,0,0,0,0,0,0,0,0,0,0,0,0,0,0,0,0,0,0,0,0,0,0,0,0,0,0,0,0,0,0,0,0,0,0,0,0,0,0,0,0,0,0,0,0,0,0,0,0,0,0,0,0,0,0,0,0,0,0,0,0,0,0,0,0,0,0,0,0,0,0,0,0,0,0,0,0,0,0,0,0,0,0,0,0,0,0,0,0,0,0,0,0,0,0,0,0,0,0,0,0,0,0],"id":8,"left_children":[1,3,5,7,9,11,13,15,17,19,21,23,25,27,29,31,33,35,37,39,41,43,45,47,49,51,53,55,57,59,61,63,65,67,69,71,73,75,77,79,81,83,85,87,89,91,93,95,97,99,101,103,105,-1,107,109,111,113,115,117,119,121,123,-1,-1,-1,-1,-1,-1,-1,-1,-1,-1,-1,-1,-1,-1,-1,-1,-1,-1,-1,-1,-1,-1,-1,-1,-1,-1,-1,-1,-1,-1,-1,-1,-1,-1,-1,-1,-1,-1,-1,-1,-1,-1,-1,-1,-1,-1,-1,-1,-1,-1,-1,-1,-1,-1,-1,-1,-1,-1,-1,-1,-1,-1],"loss_changes":[1.3191418E3,1.2327979E3,5.390747E2,1.0058169E3,4.3748114E2,2.0794702E2,3.9897934E2,1.5126627E2,1.0003302E3,2.165509E2,4.0790945E2,1.3689435E2,1.7075159E2,4.1301746E2,3.4002383E2,1.7398566E2,6.683689E1,3.2452032E2,9.61167E2,1.8719218E2,1.8057513E2,2.1934064E2,2.5859146E2,1.3342007E2,2.1390504E2,1.7073401E2,6.686685E1,3.2590646E2,8.592261E1,2.336474E2,1.8652872E2,1.330791E2,1.6765546E2,6.9982753E0,5.0766754E0,1.3318723E2,3.870232E2,6.595442E2,3.034484E2,1.7052087E2,7.9162476E1,1.6191504E2,9.896045E1,1.0696219E2,9.8076294E1,2.0231393E2,1.5882574E2,2.343803E1,9.830574E1,6.67215E1,6.672043E1,1.115249E2,7.350177E1,0E0,6.862602E1,3.4023566E2,1.522169E2,5.601941E1,1.2061301E1,8.68627E1,1.8626094E2,1.4448503E2,1.8716321E2,0E0,0E0,0E0,0E0,0E0,0E0,0E0,0E0,0E0,0E0,0E0,0E0,0E0,0E0,0E0,0E0,0E0,0E0,0E0,0E0,0E0,0E0,0E0,0E0,0E0,0E0,0E0,0E0,0E0,0E0,0E0,0E0,0E0,0E0,0E0,0E0,0E0,0E0,0E0,0E0,0E0,0E0,0E0,0E0,0E0,0E0,0E0,0E0,0E0,0E0,0E0,0E0,0E0,0E0,0E0,0E0,0E0,0E0,0E0,0E0,0E0,0E0],"parents":[2147483647,0,0,1,1,2,2,3,3,4,4,5,5,6,6,7,7,8,8,9,9,10,10,11,11,12,12,13,13,14,14,15,15,16,16,17,17,18,18,19,19,20,20,21,21,22,22,23,23,24,24,25,25,26,26,27,27,28,28,29,29,30,30,31,31,32,32,33,33,34,34,35,35,36,36,37,37,38,38,39,39,40,40,41,41,42,42,43,43,44,44,45,45,46,46,47,47,48,48,49,49,50,50,51,51,52,52,54,54,55,55,56,56,57,57,58,58,59,59,60,60,61,61,62,62],"right_children":[2,4,6,8,10,12,14,16,18,20,22,24,26,28,30,32,34,36,38,40,42,44,46,48,50,52,54,56,58,60,62,64,66,68,70,72,74,76,78,80,82,84,86,88,90,92,94,96,98,100,102,104,106,-1,108,110,112,114,116,118,120,122,124,-1,-1,-1,-1,-1,-1,-1,-1,-1,-1,-1,-1,-1,-1,-1,-1,-1,-1,-1,-1,-1,-1,-1,-1,-1,-1,-1,-1,-1,-1,-1,-1,-1,-1,-1,-1,-1,-1,-1,-1,-1,-1,-1,-1,-1,-1,-1,-1,-1,-1,-1,-1,-1,-1,-1,-1,-1,-1,-1,-1,-1,-1],"split_conditions":[8.1844026E-1,6E0,-8.470488E-1,-1.528006E0,-1.0401048E-2,-8.326158E-1,4.966973E-1,1.6173285E0,2E0,5.4679215E-1,-1.1479068E0,1.2645437E0,9.3685067E-1,1.5847267E0,3.244491E-1,2.9596618E-1,-3.19078E-1,-6.063735E-1,4E0,4.5409976E-3,4.1820118E-1,-8.38473E-2,1.1997192E0,-6.606335E-1,-8.129649E-1,8.5743773E-1,-1.2144177E0,1.3576645E0,3.7280408E-1,-6.063735E-1,5E0,-5.669739E-2,-5.258396E-1,-1.1650672E0,-3.5692653E-1,-4.491674E-1,2E0,-1.19898E0,5E0,7.5219005E-1,2.7332917E-1,7.297913E-1,-1.3121802E0,3.8687918E-1,1.414739E0,1.17262304E-1,4E0,-2.8128448E-1,1.6540632E-1,1E0,-5.6916004E-1,-2.236162E0,6.9942683E-1,-1.0302602E0,1.5899286E0,9.050847E-1,1.120149E0,-1.2234915E0,7.7666724E-1,-3.2605106E-1,-1.5495161E0,-9.687048E-1,1E0,-1.1166909E0,-4.2732546E-1,-7.5915307E-1,1.691535E-1,-7.9019684E-1,-7.8927614E-2,1.1872505E0,4.41456E-1,-4.9398508E-2,-6.3931304E-1,2.5406724E-1,-3.9465815E-1,-1.9251656E-2,6.5298307E-1,-5.756316E-2,3.7602153E-1,-6.5706253E-1,9.377139E-2,5.0088143E-1,-5.7062846E-1,-1.3829997E0,-3.8502407E-1,1.171286E0,-4.3231866E-1,-6.4461994E-1,5.5782807E-1,-1.5039653E0,6.7695126E-2,2.3099932E-1,-2.83798E-1,1.2890389E0,-8.059455E-2,-1.4921771E-1,-1.1034296E0,-2.846775E-3,1.3635159E0,-6.640938E-1,1.074025E0,-1.6316726E0,-5.34067E-1,6.473257E-2,-1.2539682E0,-6.164349E-1,4.9222758E-1,-1.9504163E-1,1.079529E0,-5.32501E-1,1.070685E-1,8.145059E-2,1.1401734E0,-5.30966E-1,-2.1887853E0,-6.182289E-1,3.1001446E-1,-1.3274993E0,-3.910359E-1,-1.3645762E0,2.570432E-1,-6.757984E-1,4.6540603E-1,1.2395103E-1,1.3765779E0],"split_indices":[19,7,13,18,11,21,16,15,4,20,13,19,15,20,14,13,25,3,4,25,16,23,17,17,20,18,5,13,10,3,7,17,16,5,0,31,12,17,7,23,21,15,28,15,15,20,4,32,5,4,16,20,21,0,19,18,14,2,1,2,15,0,12,0,0,0,0,0,0,0,0,0,0,0,0,0,0,0,0,0,0,0,0,0,0,0,0,0,0,0,0,0,0,0,0,0,0,0,0,0,0,0,0,0,0,0,0,0,0,0,0,0,0,0,0,0,0,0,0,0,0,0,0,0,0],"split_type":[0,0,0,0,0,0,0,0,0,0,0,0,0,0,0,0,0,0,0,0,0,0,0,0,0,0,0,0,0,0,0,0,0,0,0,0,0,0,0,0,0,0,0,0,0,0,0,0,0,0,0,0,0,0,0,0,0,0,0,0,0,0,0,0,0,0,0,0,0,0,0,0,0,0,0,0,0,0,0,0,0,0,0,0,0,0,0,0,0,0,0,0,0,0,0,0,0,0,0,0,0,0,0,0,0,0,0,0,0,0,0,0,0,0,0,0,0,0,0,0,0,0,0,0,0],"sum_hessian":[4E3,3.061E3,9.39E2,2.403E3,6.58E2,2.16E2,7.23E2,1.9E2,2.213E3,2.94E2,3.64E2,5.7E1,1.59E2,5.12E2,2.11E2,1.77E2,1.3E1,5.42E2,1.671E3,1.88E2,1.06E2,5.6E1,3.08E2,2.7E1,3E1,1.35E2,2.4E1,4.91E2,2.1E1,1.15E2,9.6E1,1.04E2,7.3E1,5E0,8E0,1.61E2,3.81E2,1.013E3,6.58E2,1.53E2,3.5E1,7.7E1,2.9E1,2.5E1,3.1E1,2.74E2,3.4E1,9E0,1.8E1,8E0,2.2E1,1.12E2,2.3E1,5E0,1.9E1,4.1E2,8.1E1,1.6E1,5E0,3.8E1,7.7E1,4.7E1,4.9E1,5.3E1,5.1E1,2.7E1,4.6E1,1E0,4E0,5E0,3E0,5E1,1.11E2,2.61E2,1.2E2,1.55E2,8.58E2,4.43E2,2.15E2,1.18E2,3.5E1,2.8E1,7E0,5.6E1,2.1E1,3E0,2.6E1,1.4E1,1.1E1,2.7E1,4E0,1.46E2,1.28E2,2.3E1,1.1E1,5E0,4E0,9E0,9E0,2E0,6E0,1.1E1,1.1E1,6E0,1.06E2,1.6E1,7E0,1.5E1,4E0,3.12E2,9.8E1,6.7E1,1.4E1,3E0,1.3E1,4E0,1E0,1.5E1,2.3E1,6E0,7.1E1,1.3E1,3.4E1,1.6E1,3.3E1],"tree_param":{"num_deleted":"0","num_feature":"33","num_nodes":"125","size_leaf_vector":"1"}},{"base_weights":[-2.1090347E-3,9.5998365E-1,-3.2430348E-1,-1.8155007E0,1.221974E0,7.687216E-1,-6.355877E-1,-2.7825983E0,-6.634566E-2,-5.064395E-1,1.5629086E0,7.6913886E-2,1.9242039E0,-1.49025E0,-2.8622586E-1,-3.273465E0,1.8535362E0,-2.8909621E0,9.9564993E-1,-1.3455682E0,1.2849039E0,2.9772252E-1,1.94196E0,-7.8093636E-1,8.4862953E-1,8.2724446E-1,2.8902419E0,-1.9198548E0,-3.4586415E-1,-1.1023476E0,1.9109295E-1,-3.8198764E0,1.4098096E-1,9.286366E-1,-4.2020097E-1,-1.3189472E0,4.756773E-1,-5.912802E-1,2.6318533E0,-7.306424E-1,-3.3648777E0,1.7024549E0,-1.1514478E0,2.6986234E0,-1.122196E-1,2.2685356E0,2.7926847E-1,-9.644955E-1,4.36539E0,2.5544305E0,6.307436E-1,7.2999167E0,5.360988E-1,4.918814E0,2.271335E0,-2.1800013E0,1.867643E-1,7.6750085E-2,-2.1713355E0,-1.6693764E0,-4.7557957E-2,5.312971E-1,-1.3363733E0,-3.80066E-1,-1.3897448E0,-1.7903939E-1,3.0838782E-1,1.0169964E-1,-2.9079008E-1,-4.7505116E-1,3.9389354E-1,4.045945E-1,1.4583305E0,-5.0487965E-1,1.5194035E-1,-4.5096073E-1,-1.3761823E0,8.0737334E-1,4.447397E-3,1.2024662E-1,1.2329094E0,-4.4990173E-1,1.6677122E-1,2.181525E-1,8.9800054E-1,-9.190875E-3,1.8148872E0,-1.3105227E-1,-6.812678E-1,-2.8570205E-1,1.6231204E0,-2.9656725E-2,5.243294E-1,-3.4095898E-1,2.9079485E0,-3.4171557E-1,4.5872706E-1,4.958361E-1,1.8719507E0,8.5288143E-1,-3.8147974E-1,-5.1579434E-1,-1.0244254E0,-2.1831736E-1,1.312421E0,1.9385163E-1,-2.9058352E-1,-2.1457186E-1,-1.2195343E0,-3.9013118E-1,-9.722806E-1,-2.3447718E-1,3.834395E-1,-1.0806176E-1,3.2379037E-1,-1.0618753E0,-2.298108E-1],"categories":[],"categories_nodes":[],"categories_segments":[],"categories_sizes":[],"default_left":[0,0,0,0,0,0,0,0,0,0,0,0,0,0,0,0,0,0,0,0,0,0,0,0,0,0,0,0,0,0,0,0,0,0,0,0,0,0,0,0,0,0,0,0,0,0,0,0,0,0,0,0,0,0,0,0,0,0,0,0,0,0,0,0,0,0,0,0,0,0,0,0,0,0,0,0,0,0,0,0,0,0,0,0,0,0,0,0,0,0,0,0,0,0,0,0,0,0,0,0,0,0,0,0,0,0,0,0,0,0,0,0,0,0,0,0,0],"id":9,"left_children":[1,3,5,7,9,11,13,15,17,19,21,23,25,27,29,31,33,35,37,39,41,43,45,47,49,51,53,55,57,59,61,63,65,-1,67,-1,-1,69,71,73,75,77,-1,79,81,83,85,87,89,-1,91,93,95,97,99,101,103,105,107,109,111,113,115,-1,-1,-1,-1,-1,-1,-1,-1,-1,-1,-1,-1,-1,-1,-1,-1,-1,-1,-1,-1,-1,-1,-1,-1,-1,-1,-1,-1,-1,-1,-1,-1,-1,-1,-1,-1,-1,-1,-1,-1,-1,-1,-1,-1,-1,-1,-1,-1,-1,-1,-1,-1,-1,-1],"loss_changes":[1.240545E3,7.3227716E2,1.02053253E3,1.469849E2,5.417471E2,5.314341E2,6.9647406E2,1.3350809E2,9.886976E1,2.3021042E2,3.672522E2,2.767236E2,2.6147552E2,3.3217188E2,6.4608496E2,9.568878E1,1.8243494E1,6.762723E1,6.387314E1,1.26680954E2,1.11352165E2,1.7549583E2,3.1973315E2,1.912521E2,3.6210486E2,2.1845639E2,1.5455334E2,2.7003784E2,1.436601E2,3.6595544E2,5.4478394E2,8.541254E1,5.8486357E0,0E0,1.5792197E0,0E0,0E0,2.664196E1,2.7771072E1,9.6277405E1,4.7721344E1,7.6720795E1,0E0,8.265433E1,1.4266315E2,5.485918E2,1.7543483E2,1.3135866E2,4.405217E1,0E0,1.75393E2,1.1196896E2,1.9137048E2,1.19121765E2,2.1220569E2,2.4327783E2,2.1382555E2,9.110419E1,9.360579E1,2.2654968E2,2.1021533E2,4.1907373E2,2.372941E2,0E0,0E0,0E0,0E0,0E0,0E0,0E0,0E0,0E0,0E0,0E0,0E0,0E0,0E0,0E0,0E0,0E0,0E0,0E0,0E0,0E0,0E0,0E0,0E0,0E0,0E0,0E0,0E0,0E0,0E0,0E0,0E0,0E0,0E0,0E0,0E0,0E0,0E0,0E0,0E0,0E0,0E0,0E0,0E0,0E0,0E0,0E0,0E0,0E0,0E0,0E0,0E0,0E0,0E0],"parents":[2147483647,0,0,1,1,2,2,3,3,4,4,5,5,6,6,7,7,8,8,9,9,10,10,11,11,12,12,13,13,14,14,15,15,16,16,17,17,18,18,19,19,20,20,21,21,22,22,23,23,24,24,25,25,26,26,27,27,28,28,29,29,30,30,31,31,32,32,34,34,37,37,38,38,39,39,40,40,41,41,43,43,44,44,45,45,46,46,47,47,48,48,50,50,51,51,52,52,53,53,54,54,55,55,56,56,57,57,58,58,59,59,60,60,61,61,62,62],"right_children":[2,4,6,8,10,12,14,16,18,20,22,24,26,28,30,32,34,36,38,40,42,44,46,48,50,52,54,56,58,60,62,64,66,-1,68,-1,-1,70,72,74,76,78,-1,80,82,84,86,88,90,-1,92,94,96,98,100,102,104,106,108,110,112,114,116,-1,-1,-1,-1,-1,-1,-1,-1,-1,-1,-1,-1,-1,-1,-1,-1,-1,-1,-1,-1,-1,-1,-1,-1,-1,-1,-1,-1,-1,-1,-1,-1,-1,-1,-1,-1,-1,-1,-1,-1,-1,-1,-1,-1,-1,-1,-1,-1,-1,-1,-1,-1,-1,-1],"split_conditions":[1E0,1E0,-8.867028E-1,1.6755284E-1,-1.1482201E0,3.541775E-1,-6.063735E-1,1.1483665E0,-6.063735E-1,5.0109154E-1,-7.763234E-1,-1.0082581E-1,-1.2282641E-1,6.177042E-1,-3.747813E-1,1.2682228E0,8.29801E-3,2E0,-1.9414154E-1,5E0,1.5095862E0,-1.2476995E0,5E0,1.5966616E0,-2.0014565E0,-2.07475E0,-6.9109404E-1,1.4126302E0,1.2130024E0,7.019995E-1,1.0728357E0,-1.0381953E0,3.6876422E-1,9.286366E-1,4.9772552E-1,-1.3189472E0,4.756773E-1,3.0284134E-1,8.4547055E-1,-5.888543E-2,-8.13303E-1,2.627419E-1,-1.1514478E0,-1.053212E-1,-6.3643265E-1,-5.910604E-1,1.7870839E0,6.569688E-1,-6.559711E-1,2.5544305E0,3.9573112E-1,3.5182956E-1,-3.5618237E-1,2E0,5E0,5.906851E-1,1.0012498E0,5.3534704E-1,1.8655826E-1,1.1221217E0,5.207678E-1,-1.0401048E-2,-1.0697137E0,-3.80066E-1,-1.3897448E0,-1.7903939E-1,3.0838782E-1,1.0169964E-1,-2.9079008E-1,-4.7505116E-1,3.9389354E-1,4.045945E-1,1.4583305E0,-5.0487965E-1,1.5194035E-1,-4.5096073E-1,-1.3761823E0,8.0737334E-1,4.447397E-3,1.2024662E-1,1.2329094E0,-4.4990173E-1,1.6677122E-1,2.181525E-1,8.9800054E-1,-9.190875E-3,1.8148872E0,-1.3105227E-1,-6.812678E-1,-2.8570205E-1,1.6231204E0,-2.9656725E-2,5.243294E-1,-3.4095898E-1,2.9079485E0,-3.4171557E-1,4.5872706E-1,4.958361E-1,1.8719507E0,8.5288143E-1,-3.8147974E-1,-5.1579434E-1,-1.0244254E0,-2.1831736E-1,1.312421E0,1.9385163E-1,-2.9058352E-1,-2.1457186E-1,-1.2195343E0,-3.9013118E-1,-9.722806E-1,-2.3447718E-1,3.834395E-1,-1.0806176E-1,3.2379037E-1,-1.0618753E0,-2.298108E-1],"split_indices":[6,4,19,16,18,14,3,2,3,17,17,18,13,16,13,18,1,12,13,4,32,20,4,13,5,5,23,17,19,11,20,20,26,0,0,0,0,32,18,26,14,5,0,3,13,16,0,5,0,0,3,0,23,4,4,5,13,5,0,19,18,11,16,0,0,0,0,0,0,0,0,0,0,0,0,0,0,0,0,0,0,0,0,0,0,0,0,0,0,0,0,0,0,0,0,0,0,0,0,0,0,0,0,0,0,0,0,0,0,0,0,0,0,0,0,0,0],"split_type":[0,0,0,0,0,0,0,0,0,0,0,0,0,0,0,0,0,0,0,0,0,0,0,0,0,0,0,0,0,0,0,0,0,0,0,0,0,0,0,0,0,0,0,0,0,0,0,0,0,0,0,0,0,0,0,0,0,0,0,0,0,0,0,0,0,0,0,0,0,0,0,0,0,0,0,0,0,0,0,0,0,0,0,0,0,0,0,0,0,0,0,0,0,0,0,0,0,0,0,0,0,0,0,0,0,0,0,0,0,0,0,0,0,0,0,0,0],"sum_hessian":[4E3,1.003E3,2.997E3,8.6E1,9.17E2,6.64E2,2.333E3,5.5E1,3.1E1,1.51E2,7.66E2,4.16E2,2.48E2,6.76E2,1.657E3,5E1,5E0,8E0,2.3E1,1.03E2,4.8E1,1.77E2,5.89E2,1.97E2,2.19E2,1.17E2,1.31E2,4.91E2,1.85E2,6.11E2,1.046E3,4.3E1,7E0,3E0,2E0,6E0,2E0,1.2E1,1.1E1,8E1,2.3E1,4.5E1,3E0,2.5E1,1.52E2,4.92E2,9.7E1,1.91E2,6E0,5E0,2.14E2,4E0,1.13E2,2.9E1,1.02E2,4.37E2,5.4E1,1.51E2,3.4E1,3.97E2,2.14E2,8.56E2,1.9E2,1.1E1,3.2E1,4E0,3E0,1E0,1E0,8E0,4E0,8E0,3E0,4.5E1,3.5E1,1E1,1.3E1,2.8E1,1.7E1,1E1,1.5E1,4.9E1,1.03E2,1.58E2,3.34E2,9.3E1,4E0,1.37E2,5.4E1,1E0,5E0,1.3E2,8.4E1,1E0,3E0,4.2E1,7.1E1,9E0,2E1,8.8E1,1.4E1,3.2E2,1.17E2,4.5E1,9E0,9.8E1,5.3E1,2E1,1.4E1,3.23E2,7.4E1,1.38E2,7.6E1,3.26E2,5.3E2,3.8E1,1.52E2],"tree_param":{"num_deleted":"0","num_feature":"33","num_nodes":"117","size_leaf_vector":"1"}},{"base_weights":[1.0857419E-4,3.4212E-1,-7.6347756E-1,-2.0931761E-1,1.0924611E0,-1.4092376E0,-3.196319E-1,-5.1338446E-1,1.2071685E0,-8.635818E-2,1.6074868E0,-2.0968363E0,-5.743624E-1,-9.74782E-1,1.3699244E-1,-2.2525752E0,-2.3330837E-1,-2.0663314E-2,1.8018062E0,-5.7949126E-1,1.279751E0,2.1440674E-1,2.0335507E0,-2.6302333E0,-3.2488233E-1,-1.3484569E-1,-2.7799637E0,4.270157E0,-1.1137133E0,-3.5266784E-1,1.0856107E0,-1.6683668E0,-3.8042355E0,-1.3512126E0,2.1276124E-1,5.1682186E-1,-2.6396122E0,1.2942454E0,3.31855E0,4.840678E-1,-1.0900902E0,8.322544E-1,4.6213374E0,1.5300204E0,-3.66456E-1,1.7781264E0,4.404905E0,-2.8513086E0,1.2919655E0,-1.4698966E0,1.5659362E0,1.1419636E0,-7.5256985E-1,-9.0338254E-1,-3.8369951E0,1.6215225E0,5.769348E-1,-2.2600827E0,-7.7344924E-1,-5.3182596E-1,2.715062E0,2.021894E0,-4.021029E-1,4.6203953E-1,-6.257225E-1,-1.2688836E0,6.1159575E-1,-1.8217178E-1,-6.288106E-1,-5.07017E-1,1.3678241E-1,8.3196E-1,-6.1893474E-2,-1.0009891E0,8.567992E-2,-5.1696974E-1,4.8205325E-1,3.6119413E-1,1.4940494E0,8.4426504E-1,-5.223656E-2,-1.4820905E-1,-6.141119E-1,1.1801189E0,1.098824E-1,1.9292154E0,3.491812E-1,-9.73486E-2,6.8651515E-1,-4.6478915E-1,1.754109E-1,1.214472E0,4.5463198E-1,-4.358882E-1,1.4547808E0,-5.862912E-1,-1.0910374E0,1.6382204E0,-4.425032E-1,3.4906435E-1,-6.430699E-1,-4.567005E-1,8.5545146E-1,2.2999275E-1,1.6027083E0,2.6775476E-1,-4.1762927E-1,-5.633866E-1,4.264062E-1,-2.0222478E-1,-1.3307621E0,-2.4474908E-2,2.840956E-1,1.1482186E0,-7.518819E-1,-3.6842975E-1,2.0616804E-1,-1.0064676E0,-1.0968987E-1,-8.065872E-2,1.22875E0,1.9132721E-1,8.0764866E-1,-5.845645E-1,3.9731818E-1],"categories":[],"categories_nodes":[],"categories_segments":[],"categories_sizes":[],"default_left":[0,0,0,0,0,0,0,0,0,0,0,0,0,0,0,0,0,0,0,0,0,0,0,0,0,0,0,0,0,0,0,0,0,0,0,0,0,0,0,0,0,0,0,0,0,0,0,0,0,0,0,0,0,0,0,0,0,0,0,0,0,0,0,0,0,0,0,0,0,0,0,0,0,0,0,0,0,0,0,0,0,0,0,0,0,0,0,0,0,0,0,0,0,0,0,0,0,0,0,0,0,0,0,0,0,0,0,0,0,0,0,0,0,0,0,0,0,0,0,0,0,0,0,0,0],"id":10,"left_children":[1,3,5,7,9,11,13,15,17,19,21,23,25,27,29,31,33,35,37,39,41,43,45,47,49,51,53,55,57,59,61,63,65,67,69,71,73,75,77,79,81,83,85,87,89,91,93,95,97,99,101,103,105,107,109,-1,111,113,115,117,119,121,123,-1,-1,-1,-1,-1,-1,-1,-1,-1,-1,-1,-1,-1,-1,-1,-1,-1,-1,-1,-1,-1,-1,-1,-1,-1,-1,-1,-1,-1,-1,-1,-1,-1,-1,-1,-1,-1,-1,-1,-1,-1,-1,-1,-1,-1,-1,-1,-1,-1,-1,-1,-1,-1,-1,-1,-1,-1,-1,-1,-1,-1,-1],"loss_changes":[1.0451431E3,1.1438788E3,3.543824E2,6.871658E2,7.11079E2,2.8812146E2,2.2001425E2,6.390442E2,2.0592972E2,2.4124309E2,4.832998E2,2.6000818E2,2.2161742E2,2.2481894E2,2.0197617E2,1.5863495E2,5.647742E2,1.322753E2,1.4197455E2,1.4335036E2,1.3821194E2,1.4728534E2,3.7012524E2,1.875094E2,1.4302768E2,1.5229288E2,7.1910706E1,3.0413666E1,1.1332211E2,1.5918164E2,2.069654E2,1.8265793E2,1.3040857E2,1.7771057E2,3.7557977E2,1.27841805E2,3.3575752E1,1.3859839E2,1.5914319E2,1.3238649E2,1.0051976E2,1.21403244E2,6.1328323E1,8.3719986E1,1.5166527E2,3.3079065E2,1.6322754E2,1.3451343E2,1.4647324E2,7.523108E1,1.0359555E2,9.522371E1,1.3801259E2,3.665361E1,4.2470673E1,0E0,8.0831236E-1,1.10003815E2,1.52922E2,1.2638866E2,6.702309E1,8.270761E1,1.5743674E2,0E0,0E0,0E0,0E0,0E0,0E0,0E0,0E0,0E0,0E0,0E0,0E0,0E0,0E0,0E0,0E0,0E0,0E0,0E0,0E0,0E0,0E0,0E0,0E0,0E0,0E0,0E0,0E0,0E0,0E0,0E0,0E0,0E0,0E0,0E0,0E0,0E0,0E0,0E0,0E0,0E0,0E0,0E0,0E0,0E0,0E0,0E0,0E0,0E0,0E0,0E0,0E0,0E0,0E0,0E0,0E0,0E0,0E0,0E0,0E0,0E0,0E0],"parents":[2147483647,0,0,1,1,2,2,3,3,4,4,5,5,6,6,7,7,8,8,9,9,10,10,11,11,12,12,13,13,14,14,15,15,16,16,17,17,18,18,19,19,20,20,21,21,22,22,23,23,24,24,25,25,26,26,27,27,28,28,29,29,30,30,31,31,32,32,33,33,34,34,35,35,36,36,37,37,38,38,39,39,40,40,41,41,42,42,43,43,44,44,45,45,46,46,47,47,48,48,49,49,50,50,51,51,52,52,53,53,54,54,56,56,57,57,58,58,59,59,60,60,61,61,62,62],"right_children":[2,4,6,8,10,12,14,16,18,20,22,24,26,28,30,32,34,36,38,40,42,44,46,48,50,52,54,56,58,60,62,64,66,68,70,72,74,76,78,80,82,84,86,88,90,92,94,96,98,100,102,104,106,108,110,-1,112,114,116,118,120,122,124,-1,-1,-1,-1,-1,-1,-1,-1,-1,-1,-1,-1,-1,-1,-1,-1,-1,-1,-1,-1,-1,-1,-1,-1,-1,-1,-1,-1,-1,-1,-1,-1,-1,-1,-1,-1,-1,-1,-1,-1,-1,-1,-1,-1,-1,-1,-1,-1,-1,-1,-1,-1,-1,-1,-1,-1,-1,-1,-1,-1,-1,-1],"split_conditions":[2E0,1E0,-1.0401048E-2,9.761053E-1,-5.50214E-1,3.7280408E-1,-2.8195822E-1,-1.1479068E0,-6.063735E-1,7.3870826E-1,-8.272223E-1,7.7397007E-1,1.0862797E0,-2.0615664E0,4.6382204E-1,7.0939636E-1,-6.5646374E-1,1.0312369E0,9.045212E-1,-4.2139593E-1,1.3181508E0,-4.0781727E-1,1.3519869E0,1.4805626E0,3.3086443E-1,-6.95394E-1,-6.050447E-1,1.2274005E0,-8.174111E-1,1.4082253E0,3.4169027E-1,-1.2312753E0,1.3806244E0,5.376978E-3,-1.4048176E0,-6.8392295E-1,8.59924E-1,1E0,-4.8380923E-2,-7.90019E-1,5.1666063E-1,-1.2827653E0,-7.124649E-1,-6.063735E-1,-1.7531899E-1,-1.4283236E0,1E0,-1.0234313E-1,-8.320573E-2,-1.1647055E0,-2.602872E-1,1.0625345E0,1E0,1.4951024E0,-9.4710517E-1,1.6215225E0,2.773843E-1,-1.3177956E0,8.506505E-1,-1.735405E0,-5.0257313E-1,-5.2537715E-1,1.5122461E-2,4.6203953E-1,-6.257225E-1,-1.2688836E0,6.1159575E-1,-1.8217178E-1,-6.288106E-1,-5.07017E-1,1.3678241E-1,8.3196E-1,-6.1893474E-2,-1.0009891E0,8.567992E-2,-5.1696974E-1,4.8205325E-1,3.6119413E-1,1.4940494E0,8.4426504E-1,-5.223656E-2,-1.4820905E-1,-6.141119E-1,1.1801189E0,1.098824E-1,1.9292154E0,3.491812E-1,-9.73486E-2,6.8651515E-1,-4.6478915E-1,1.754109E-1,1.214472E0,4.5463198E-1,-4.358882E-1,1.4547808E0,-5.862912E-1,-1.0910374E0,1.6382204E0,-4.425032E-1,3.4906435E-1,-6.430699E-1,-4.567005E-1,8.5545146E-1,2.2999275E-1,1.6027083E0,2.6775476E-1,-4.1762927E-1,-5.633866E-1,4.264062E-1,-2.0222478E-1,-1.3307621E0,-2.4474908E-2,2.840956E-1,1.1482186E0,-7.518819E-1,-3.6842975E-1,2.0616804E-1,-1.0064676E0,-1.0968987E-1,-8.065872E-2,1.22875E0,1.9132721E-1,8.0764866E-1,-5.845645E-1,3.9731818E-1],"split_indices":[12,12,11,15,18,10,16,13,3,14,17,15,19,20,17,20,16,31,14,20,13,20,14,16,13,5,15,1,18,14,20,5,17,20,0,20,20,4,28,26,19,19,18,3,13,20,8,20,14,21,17,25,6,19,23,0,0,26,15,14,32,30,0,0,0,0,0,0,0,0,0,0,0,0,0,0,0,0,0,0,0,0,0,0,0,0,0,0,0,0,0,0,0,0,0,0,0,0,0,0,0,0,0,0,0,0,0,0,0,0,0,0,0,0,0,0,0,0,0,0,0,0,0,0,0],"split_type":[0,0,0,0,0,0,0,0,0,0,0,0,0,0,0,0,0,0,0,0,0,0,0,0,0,0,0,0,0,0,0,0,0,0,0,0,0,0,0,0,0,0,0,0,0,0,0,0,0,0,0,0,0,0,0,0,0,0,0,0,0,0,0,0,0,0,0,0,0,0,0,0,0,0,0,0,0,0,0,0,0,0,0,0,0,0,0,0,0,0,0,0,0,0,0,0,0,0,0,0,0,0,0,0,0,0,0,0,0,0,0,0,0,0,0,0,0,0,0,0,0,0,0,0,0],"sum_hessian":[4E3,2.763E3,1.237E3,1.593E3,1.17E3,5.03E2,7.34E2,1.312E3,2.81E2,3.56E2,8.14E2,2.75E2,2.28E2,3.01E2,4.33E2,1.81E2,1.131E3,9.2E1,1.89E2,2.62E2,9.4E1,1.91E2,6.23E2,2.11E2,6.4E1,1.91E2,3.7E1,7E0,2.94E2,2.86E2,1.47E2,1.33E2,4.8E1,3.22E2,8.09E2,7.7E1,1.5E1,1.43E2,4.6E1,8.5E1,1.77E2,8.4E1,1E1,5.8E1,1.33E2,5.64E2,5.9E1,2E2,1.1E1,4E1,2.4E1,6.2E1,1.29E2,1.4E1,2.3E1,5E0,2E0,6.6E1,2.28E2,2.71E2,1.5E1,9E1,5.7E1,1.5E1,1.18E2,4.5E1,3E0,1.62E2,1.6E2,9.1E1,7.18E2,1.8E1,5.9E1,1.2E1,3E0,1.3E1,1.3E2,2.1E1,2.5E1,1.8E1,6.7E1,1.1E2,6.7E1,1E1,7.4E1,6E0,4E0,1.7E1,4.1E1,5.9E1,7.4E1,5.7E1,5.07E2,4E0,5.5E1,9.5E1,1.05E2,4E0,7E0,8E0,3.2E1,7E0,1.7E1,5.8E1,4E0,3.6E1,9.3E1,1E1,4E0,4E0,1.9E1,1E0,1E0,2E0,6.4E1,1.74E2,5.4E1,1.4E1,2.57E2,5E0,1E1,3E1,6E1,3E1,2.7E1],"tree_param":{"num_deleted":"0","num_feature":"33","num_nodes":"125","size_leaf_vector":"1"}},{"base_weights":[2.2888577E-3,-1.5753795E0,1.3568458E-1,-2.2742112E0,-1.1385942E0,5.279585E-1,-5.9279907E-1,-2.9620986E0,-1.1574026E0,-1.7604297E0,-2.111067E-1,-4.5527577E-1,7.8512084E-1,-8.145235E-1,5.6003404E-1,-5.4509835E0,-2.4326034E0,-5.1718277E-1,-3.474498E0,-2.1148746E0,9.730166E-1,2.9156383E-2,-4.7233286E0,-2.1152225E0,-1.9677646E-1,1.1482711E0,-2.4372926E-2,-1.0911908E0,1.7350912E-1,2.924637E-1,4.571675E0,-1.0444966E-1,-1.7649674E0,8.29602E-1,-2.8628767E0,-1.0854744E0,1.4345876E0,-1.1480002E0,-4.3075686E0,-2.4263515E0,-5.0921327E-1,3.813846E0,-1.4846836E-1,1.7740684E0,-4.6572128E-1,-2.3978907E-1,-1.7294722E0,-3.6072917E0,-8.079421E-1,5.8456886E-1,-8.666146E-1,1.6508348E-1,1.6836249E0,3.9082134E-1,-9.7987944E-1,-1.3145504E0,7.596081E-2,-4.6357002E-2,2.863337E0,-2.7357075E0,5.570696E-1,1.4745926E0,6.3230267E0,7.85635E-1,-6.09767E-2,-1.8108016E-1,-1.0438006E0,-6.5029037E-1,4.235836E-2,6.6985464E-1,-2.718652E-1,-4.352135E-1,-3.597994E-2,-1.379672E0,-3.8393128E-1,-8.706705E-1,-3.2281807E-1,6.565698E-2,-6.0054874E-1,1.2960745E0,3.4419596E-1,-5.6653684E-1,3.3467692E-1,-1.2628134E-1,1.0058E0,-3.2647863E-1,3.1419984E-1,-1.7199348E0,-4.5581132E-1,2.5195366E-1,-4.6121544E-1,-4.0845934E-1,2.8488067E-1,-5.546238E-1,-1.0813602E-1,-3.294365E-1,1.4034376E-1,1.5722808E-1,6.0635155E-1,1.845847E-2,5.682175E-1,3.4825614E-1,-4.1033354E-1,-5.525328E-1,-2.12142E-1,6.207903E-1,-2.1301849E-1,8.457862E-2,-5.0595987E-1,1.319557E0,-6.0235536E-1,6.697905E-1,-1.2161969E0,-1.8518351E-1,3.4625933E-1,-4.1394997E-2,5.474113E-1,6.0523933E-1,2.226591E0],"categories":[],"categories_nodes":[],"categories_segments":[],"categories_sizes":[],"default_left":[0,0,0,0,0,0,0,0,0,0,0,0,0,0,0,0,0,0,0,0,0,0,0,0,0,0,0,0,0,0,0,0,0,0,0,0,0,0,0,0,0,0,0,0,0,0,0,0,0,0,0,0,0,0,0,0,0,0,0,0,0,0,0,0,0,0,0,0,0,0,0,0,0,0,0,0,0,0,0,0,0,0,0,0,0,0,0,0,0,0,0,0,0,0,0,0,0,0,0,0,0,0,0,0,0,0,0,0,0,0,0,0,0,0,0,0,0,0,0],"id":11,"left_children":[1,3,5,7,9,11,13,15,17,19,21,23,25,27,29,31,33,35,37,39,41,43,45,47,49,51,53,55,57,59,61,-1,-1,63,65,67,69,71,73,75,77,79,81,83,85,-1,-1,87,89,91,93,95,97,99,101,103,105,107,109,111,113,115,117,-1,-1,-1,-1,-1,-1,-1,-1,-1,-1,-1,-1,-1,-1,-1,-1,-1,-1,-1,-1,-1,-1,-1,-1,-1,-1,-1,-1,-1,-1,-1,-1,-1,-1,-1,-1,-1,-1,-1,-1,-1,-1,-1,-1,-1,-1,-1,-1,-1,-1,-1,-1,-1,-1,-1,-1],"loss_changes":[8.422411E2,9.2645325E1,1.0547864E3,8.799213E1,1.1151683E2,6.0694666E2,3.30706E2,8.294318E1,6.792524E1,1.144451E2,8.5783226E1,2.1327312E2,5.5915466E2,2.9650763E2,2.2300273E2,2.4419403E1,8.940073E1,4.3705856E1,1.4436279E1,5.0277496E1,4.5169502E1,6.645359E1,1.1740868E1,1.2777255E2,2.2660455E2,6.90824E2,2.3444826E2,2.2090802E2,1.4088644E2,1.5937454E2,6.118921E1,0E0,0E0,1.5316039E1,7.45011E1,4.0129623E1,1.8840601E1,1.0708418E0,2.8923035E-1,5.2139008E1,1.999923E1,4.4463348E-1,2.630064E1,6.031682E1,5.7656044E1,0E0,0E0,1.2888437E2,4.576393E1,1.4337119E2,1.1516182E2,1.7795143E2,3.316277E2,2.0382578E2,1.5022728E2,2.263899E2,2.161223E2,1.1947212E2,1.4343878E2,1.1384588E2,1.2833745E2,3.6392689E0,2.2878967E1,0E0,0E0,0E0,0E0,0E0,0E0,0E0,0E0,0E0,0E0,0E0,0E0,0E0,0E0,0E0,0E0,0E0,0E0,0E0,0E0,0E0,0E0,0E0,0E0,0E0,0E0,0E0,0E0,0E0,0E0,0E0,0E0,0E0,0E0,0E0,0E0,0E0,0E0,0E0,0E0,0E0,0E0,0E0,0E0,0E0,0E0,0E0,0E0,0E0,0E0,0E0,0E0,0E0,0E0,0E0,0E0],"parents":[2147483647,0,0,1,1,2,2,3,3,4,4,5,5,6,6,7,7,8,8,9,9,10,10,11,11,12,12,13,13,14,14,15,15,16,16,17,17,18,18,19,19,20,20,21,21,22,22,23,23,24,24,25,25,26,26,27,27,28,28,29,29,30,30,33,33,34,34,35,35,36,36,37,37,38,38,39,39,40,40,41,41,42,42,43,43,44,44,47,47,48,48,49,49,50,50,51,51,52,52,53,53,54,54,55,55,56,56,57,57,58,58,59,59,60,60,61,61,62,62],"right_children":[2,4,6,8,10,12,14,16,18,20,22,24,26,28,30,32,34,36,38,40,42,44,46,48,50,52,54,56,58,60,62,-1,-1,64,66,68,70,72,74,76,78,80,82,84,86,-1,-1,88,90,92,94,96,98,100,102,104,106,108,110,112,114,116,118,-1,-1,-1,-1,-1,-1,-1,-1,-1,-1,-1,-1,-1,-1,-1,-1,-1,-1,-1,-1,-1,-1,-1,-1,-1,-1,-1,-1,-1,-1,-1,-1,-1,-1,-1,-1,-1,-1,-1,-1,-1,-1,-1,-1,-1,-1,-1,-1,-1,-1,-1,-1,-1,-1,-1,-1],"split_conditions":[1E0,-3.5184026E-1,2E0,4.5093748E-1,3.2877854E-1,-4.4979978E-1,1.1455063E0,-7.228016E-1,1.020072E0,1.2797581E0,2.1377213E0,-1.2297407E0,4E0,8.37873E-1,1.4989722E0,1E0,-1.710208E0,6.9857824E-1,1E0,9.8721707E-1,-4.320006E-1,-1.0643287E0,-3.2125628E-1,-1.0401048E-2,-1.248422E-1,2E0,2E0,1.1039793E0,2.0180118E0,-1.4341273E0,-3.4726888E-1,-1.0444966E-1,-1.7649674E0,-5.387395E-1,-8.590944E-1,2.234579E-1,-1.5079094E-1,6.7069906E-1,1.7808824E0,7.242022E-1,6.0462314E-1,9.088489E-1,-2.2184922E-1,3.7280408E-1,5.6057125E-1,-2.3978907E-1,-1.7294722E0,1E0,-5.343684E-1,-9.705059E-1,-5.011071E-1,-1.060204E0,-8.6018944E-1,9.9718285E-1,-1.0811497E0,6.9437996E-2,-6.95394E-1,8.840251E-1,1.1700492E0,-7.271144E-1,-6.063735E-1,-1.6535065E0,-8.4238684E-1,7.85635E-1,-6.09767E-2,-1.8108016E-1,-1.0438006E0,-6.5029037E-1,4.235836E-2,6.6985464E-1,-2.718652E-1,-4.352135E-1,-3.597994E-2,-1.379672E0,-3.8393128E-1,-8.706705E-1,-3.2281807E-1,6.565698E-2,-6.0054874E-1,1.2960745E0,3.4419596E-1,-5.6653684E-1,3.3467692E-1,-1.2628134E-1,1.0058E0,-3.2647863E-1,3.1419984E-1,-1.7199348E0,-4.5581132E-1,2.5195366E-1,-4.6121544E-1,-4.0845934E-1,2.8488067E-1,-5.546238E-1,-1.0813602E-1,-3.294365E-1,1.4034376E-1,1.5722808E-1,6.0635155E-1,1.845847E-2,5.682175E-1,3.4825614E-1,-4.1033354E-1,-5.525328E-1,-2.12142E-1,6.207903E-1,-2.1301849E-1,8.457862E-2,-5.0595987E-1,1.319557E0,-6.0235536E-1,6.697905E-1,-1.2161969E0,-1.8518351E-1,3.4625933E-1,-4.1394997E-2,5.474113E-1,6.0523933E-1,2.226591E0],"split_indices":[8,14,8,1,18,10,13,11,26,13,29,16,4,17,14,4,1,30,9,32,18,1,0,11,19,4,12,18,10,18,32,0,0,2,21,2,2,1,1,26,13,0,30,10,2,0,0,9,23,15,14,0,16,18,21,16,5,26,30,22,3,1,2,0,0,0,0,0,0,0,0,0,0,0,0,0,0,0,0,0,0,0,0,0,0,0,0,0,0,0,0,0,0,0,0,0,0,0,0,0,0,0,0,0,0,0,0,0,0,0,0,0,0,0,0,0,0,0,0],"split_type":[0,0,0,0,0,0,0,0,0,0,0,0,0,0,0,0,0,0,0,0,0,0,0,0,0,0,0,0,0,0,0,0,0,0,0,0,0,0,0,0,0,0,0,0,0,0,0,0,0,0,0,0,0,0,0,0,0,0,0,0,0,0,0,0,0,0,0,0,0,0,0,0,0,0,0,0,0,0,0,0,0,0,0,0,0,0,0,0,0,0,0,0,0,0,0,0,0,0,0,0,0,0,0,0,0,0,0,0,0,0,0,0,0,0,0,0,0,0,0],"sum_hessian":[4E3,3.11E2,3.689E3,1.18E2,1.93E2,2.398E3,1.291E3,7.2E1,4.6E1,1.15E2,7.8E1,4.97E2,1.901E3,1.083E3,2.08E2,1.1E1,6.1E1,3.7E1,9E0,1.02E2,1.3E1,7.5E1,3E0,6.6E1,4.31E2,1.312E3,5.89E2,8.46E2,2.37E2,1.96E2,1.2E1,1E0,1E1,7E0,5.4E1,2.9E1,8E0,3E0,6E0,8.5E1,1.7E1,3E0,1E1,1.6E1,5.9E1,1E0,2E0,3E1,3.6E1,1.99E2,2.32E2,4.63E2,8.49E2,4.11E2,1.78E2,7.1E2,1.36E2,2.2E2,1.7E1,1.5E1,1.81E2,5E0,7E0,2E0,5E0,1.2E1,4.2E1,1.5E1,1.4E1,6E0,2E0,2E0,1E0,5E0,1E0,6.2E1,2.3E1,1.2E1,5E0,2E0,1E0,4E0,6E0,7E0,9E0,4.2E1,1.7E1,1.4E1,1.6E1,1.1E1,2.5E1,3.1E1,1.68E2,7.8E1,1.54E2,8.9E1,3.74E2,1.92E2,6.57E2,3.38E2,7.3E1,2.7E1,1.51E2,3.79E2,3.31E2,3.8E1,9.8E1,1.84E2,3.6E1,1.3E1,4E0,3E0,1.2E1,6.1E1,1.2E2,1E0,4E0,2E0,5E0],"tree_param":{"num_deleted":"0","num_feature":"33","num_nodes":"119","size_leaf_vector":"1"}},{"base_weights":[2.4813102E-4,-1.6855519E-1,8.105037E-1,2.804962E-1,-5.111689E-1,1.06574E0,-5.5975336E-1,-5.888864E-1,5.3378105E-1,-7.5583553E-1,4.5596564E-1,5.7249013E-2,1.4157779E0,1.437051E-3,-2.3513012E0,-7.264135E-1,3.047352E0,9.5119023E-1,-2.7491212E-1,-1.7870058E0,-5.270038E-1,-1.4866451E0,7.616185E-1,6.617353E-1,-1.177048E0,2.9066536E0,1.1533611E0,-1.3008531E0,7.876983E-1,-3.1173265E0,2.6411705E0,-2.528404E0,-4.222648E-1,6.8753463E-1,4.634717E0,1.2284957E0,-4.89936E-1,-7.5057846E-1,7.4552166E-1,-2.3552487E0,-1.0366158E0,3.4266376E0,-5.885994E-1,-1.9331985E0,2.2591298E0,2.3371056E-1,2.119015E0,-1.6259238E-2,1.7573742E0,1.653793E-1,-2.5260904E0,1.721747E0,4.368614E0,9.12491E-2,1.6338793E0,-5.6513566E-1,-2.6540287E0,2.8879483E0,1.6887222E-1,-5.06212E0,-2.2958772E0,1.3415337E-1,9.670327E-1,-5.185659E-1,-1.3751848E0,-3.970091E-1,4.344684E-2,5.524869E-1,-3.2412833E-1,1.9464564E0,4.8677003E-1,-1.5938802E-1,4.489275E-1,-2.992561E-1,8.519948E-1,-5.28417E-1,-3.4239024E-2,1.2303705E0,1.1179992E-1,-8.674029E-1,-3.2197824E-1,-3.449183E-2,-5.6462353E-1,1.5266434E0,-3.0686206E-1,-5.1475817E-1,-1.2010106E-1,-7.774756E-1,1.3713612E-1,1.6341186E0,1.5963936E-1,2.3249587E-1,-2.9290384E-1,8.794575E-1,1.2769197E-1,-5.664518E-1,1.3560954E-1,2.0168412E-1,1.0941066E0,5.5236405E-1,-4.9562597E-1,-9.1398036E-1,6.9195616E-1,7.6218444E-1,-2.2297709E-1,-1.7603946E-1,1.4960207E0,-5.5044127E-1,1.4622983E-1,9.8896556E-2,6.0032576E-1,3.0444396E-1,-4.1102982E-1,-1.0945723E0,-2.1925783E-1,3.4646595E-1,1.5249772E0,-6.310285E-1,2.2961901E-1,-1.6488603E0,-4.3375713E-1,-9.5327055E-1,-4.337794E-1],"categories":[],"categories_nodes":[],"categories_segments":[],"categories_sizes":[],"default_left":[0,0,0,0,0,0,0,0,0,0,0,0,0,0,0,0,0,0,0,0,0,0,0,0,0,0,0,0,0,0,0,0,0,0,0,0,0,0,0,0,0,0,0,0,0,0,0,0,0,0,0,0,0,0,0,0,0,0,0,0,0,0,0,0,0,0,0,0,0,0,0,0,0,0,0,0,0,0,0,0,0,0,0,0,0,0,0,0,0,0,0,0,0,0,0,0,0,0,0,0,0,0,0,0,0,0,0,0,0,0,0,0,0,0,0,0,0,0,0,0,0,0,0],"id":12,"left_children":[1,3,5,7,9,11,13,15,17,19,21,23,25,27,29,31,33,35,37,39,41,43,45,47,49,51,53,55,57,59,61,63,65,67,69,71,73,75,77,79,81,83,85,87,89,91,93,95,97,99,101,103,105,107,109,111,113,115,117,119,121,-1,-1,-1,-1,-1,-1,-1,-1,-1,-1,-1,-1,-1,-1,-1,-1,-1,-1,-1,-1,-1,-1,-1,-1,-1,-1,-1,-1,-1,-1,-1,-1,-1,-1,-1,-1,-1,-1,-1,-1,-1,-1,-1,-1,-1,-1,-1,-1,-1,-1,-1,-1,-1,-1,-1,-1,-1,-1,-1,-1,-1,-1],"loss_changes":[5.4736865E2,5.0969843E2,2.4191666E2,3.1608322E2,4.4496408E2,2.0537085E2,1.095919E2,1.6423996E2,3.7528616E2,3.53005E2,2.2676277E2,1.1344236E2,1.6565936E2,8.703567E1,1.0766675E2,1.7047922E2,4.1764183E1,2.935323E2,1.8452087E2,1.1354028E2,3.013111E2,9.134713E1,2.3525967E2,7.579796E1,9.096734E1,1.03344666E2,1.881753E2,3.0357872E1,6.839584E1,2.5121628E1,3.6685486E0,6.6062256E1,1.3765118E2,1.4232048E1,2.8552994E1,2.9076685E2,2.0396841E2,1.6642128E2,1.4986627E2,1.0273584E2,9.251018E1,1.4572653E2,2.5631274E2,7.515111E1,3.0134768E1,1.566405E2,1.2533359E2,5.6955925E1,7.751551E1,8.22319E1,6.9912674E1,7.657329E1,8.869153E1,8.941055E1,1.209859E2,2.9370028E1,1.8372871E1,3.978469E1,5.8540226E1,1.4717865E0,8.894478E0,0E0,0E0,0E0,0E0,0E0,0E0,0E0,0E0,0E0,0E0,0E0,0E0,0E0,0E0,0E0,0E0,0E0,0E0,0E0,0E0,0E0,0E0,0E0,0E0,0E0,0E0,0E0,0E0,0E0,0E0,0E0,0E0,0E0,0E0,0E0,0E0,0E0,0E0,0E0,0E0,0E0,0E0,0E0,0E0,0E0,0E0,0E0,0E0,0E0,0E0,0E0,0E0,0E0,0E0,0E0,0E0,0E0,0E0,0E0,0E0,0E0,0E0],"parents":[2147483647,0,0,1,1,2,2,3,3,4,4,5,5,6,6,7,7,8,8,9,9,10,10,11,11,12,12,13,13,14,14,15,15,16,16,17,17,18,18,19,19,20,20,21,21,22,22,23,23,24,24,25,25,26,26,27,27,28,28,29,29,30,30,31,31,32,32,33,33,34,34,35,35,36,36,37,37,38,38,39,39,40,40,41,41,42,42,43,43,44,44,45,45,46,46,47,47,48,48,49,49,50,50,51,51,52,52,53,53,54,54,55,55,56,56,57,57,58,58,59,59,60,60],"right_children":[2,4,6,8,10,12,14,16,18,20,22,24,26,28,30,32,34,36,38,40,42,44,46,48,50,52,54,56,58,60,62,64,66,68,70,72,74,76,78,80,82,84,86,88,90,92,94,96,98,100,102,104,106,108,110,112,114,116,118,120,122,-1,-1,-1,-1,-1,-1,-1,-1,-1,-1,-1,-1,-1,-1,-1,-1,-1,-1,-1,-1,-1,-1,-1,-1,-1,-1,-1,-1,-1,-1,-1,-1,-1,-1,-1,-1,-1,-1,-1,-1,-1,-1,-1,-1,-1,-1,-1,-1,-1,-1,-1,-1,-1,-1,-1,-1,-1,-1,-1,-1,-1,-1],"split_conditions":[1.0223768E0,-1.6320084E-1,1.0873659E0,-8.6018944E-1,1.0153774E0,-7.124649E-1,6.946434E-1,1.8207973E0,4.442141E-1,-1.0466732E0,-1.1962757E0,2E0,-1.1077622E0,-5.105317E-1,1.4082253E0,-1.2863934E0,-4.657637E-1,5E0,6.177042E-1,3.9573112E-1,-2.07475E0,1.3047712E0,6.9833326E-1,1.7232773E-1,-4.8050803E-1,-1.648009E-1,-5.1195437E-1,7.66184E-1,-1.0114881E0,-1.1980954E0,2E0,-5.933089E-1,-3.625133E-1,-1.6369598E-1,-9.157415E-1,-9.150823E-1,1.2567056E0,-1.0401048E-2,7.6678425E-1,5.3058565E-1,-3.021888E-1,2E0,-1.1980954E0,8.5923886E-1,-1.0401048E-2,5.1684123E-1,6E0,-6.85844E-1,3.9258793E-1,1.3806269E-2,1.7847756E0,2.1137308E-1,-1.41079E0,-7.228016E-1,-1.0155479E0,-6.7842454E-1,2.6708713E-1,6.6263026E-1,-4.5727643E-1,-2.1244065E-1,-3.8246566E-1,1.3415337E-1,9.670327E-1,-5.185659E-1,-1.3751848E0,-3.970091E-1,4.344684E-2,5.524869E-1,-3.2412833E-1,1.9464564E0,4.8677003E-1,-1.5938802E-1,4.489275E-1,-2.992561E-1,8.519948E-1,-5.28417E-1,-3.4239024E-2,1.2303705E0,1.1179992E-1,-8.674029E-1,-3.2197824E-1,-3.449183E-2,-5.6462353E-1,1.5266434E0,-3.0686206E-1,-5.1475817E-1,-1.2010106E-1,-7.774756E-1,1.3713612E-1,1.6341186E0,1.5963936E-1,2.3249587E-1,-2.9290384E-1,8.794575E-1,1.2769197E-1,-5.664518E-1,1.3560954E-1,2.0168412E-1,1.0941066E0,5.5236405E-1,-4.9562597E-1,-9.1398036E-1,6.9195616E-1,7.6218444E-1,-2.2297709E-1,-1.7603946E-1,1.4960207E0,-5.5044127E-1,1.4622983E-1,9.8896556E-2,6.0032576E-1,3.0444396E-1,-4.1102982E-1,-1.0945723E0,-2.1925783E-1,3.4646595E-1,1.5249772E0,-6.310285E-1,2.2961901E-1,-1.6488603E0,-4.3375713E-1,-9.5327055E-1,-4.337794E-1],"split_indices":[15,20,20,16,13,18,2,25,19,17,1,12,19,13,14,14,27,4,16,3,5,17,14,13,19,1,16,14,30,14,4,20,2,0,20,27,18,11,16,18,28,12,14,30,11,5,7,29,21,2,29,5,2,11,14,21,2,22,30,0,1,0,0,0,0,0,0,0,0,0,0,0,0,0,0,0,0,0,0,0,0,0,0,0,0,0,0,0,0,0,0,0,0,0,0,0,0,0,0,0,0,0,0,0,0,0,0,0,0,0,0,0,0,0,0,0,0,0,0,0,0,0,0],"split_type":[0,0,0,0,0,0,0,0,0,0,0,0,0,0,0,0,0,0,0,0,0,0,0,0,0,0,0,0,0,0,0,0,0,0,0,0,0,0,0,0,0,0,0,0,0,0,0,0,0,0,0,0,0,0,0,0,0,0,0,0,0,0,0,0,0,0,0,0,0,0,0,0,0,0,0,0,0,0,0,0,0,0,0,0,0,0,0,0,0,0,0,0,0,0,0,0,0,0,0,0,0,0,0,0,0,0,0,0,0,0,0,0,0,0,0,0,0,0,0,0,0,0,0],"sum_hessian":[4E3,3.311E3,6.89E2,1.433E3,1.878E3,5.81E2,1.08E2,3.23E2,1.11E3,1.499E3,3.79E2,1.5E2,4.31E2,8.3E1,2.5E1,3.12E2,1.1E1,7.32E2,3.78E2,2.71E2,1.228E3,5.1E1,3.28E2,1.01E2,4.9E1,6.3E1,3.68E2,3.1E1,5.2E1,2.2E1,3E0,4.4E1,2.68E2,5E0,6E0,6.14E2,1.18E2,2.58E2,1.2E2,1.53E2,1.18E2,1.8E1,1.21E3,4.6E1,5E0,2.37E2,9.1E1,6.3E1,3.8E1,2.5E1,2.4E1,3.6E1,2.7E1,1.15E2,2.53E2,2.1E1,1E1,1.1E1,4.1E1,5E0,1.7E1,1E0,2E0,3.3E1,1.1E1,1.03E2,1.65E2,3E0,2E0,3E0,3E0,8.1E1,5.33E2,1.03E2,1.5E1,9.9E1,1.59E2,1.1E1,1.09E2,1.07E2,4.6E1,5.7E1,6.1E1,1.3E1,5E0,1.72E2,1.038E3,3.6E1,1E1,1E0,4E0,1.64E2,7.3E1,6.1E1,3E1,1.2E1,5.1E1,2.5E1,1.3E1,1.3E1,1.2E1,2.2E1,2E0,2.7E1,9E0,3E0,2.4E1,1.9E1,9.6E1,5.6E1,1.97E2,7E0,1.4E1,6E0,4E0,7E0,4E0,8E0,3.3E1,4E0,1E0,7E0,1E1],"tree_param":{"num_deleted":"0","num_feature":"33","num_nodes":"123","size_leaf_vector":"1"}},{"base_weights":[1.0405994E-3,-3.1597668E-1,4.0446743E-1,-7.648263E-1,-1.2481892E-2,6.8392926E-1,-5.4198176E-1,-1.8915753E0,-5.506125E-1,7.174031E-1,-2.5990042E-1,8.7657315E-1,-3.692667E-1,-1.8456041E0,-2.56777E-1,-2.0683553E0,4.812817E0,-9.0951014E-1,1.3640821E-1,-1.1235276E0,1.0701532E0,7.175531E-1,-5.082252E-1,-6.0581136E-1,1.0386901E0,-2.914795E0,-1.8741484E-1,-2.249842E0,8.8565505E-1,3.4085321E0,-3.5811135E-1,-2.227149E0,5.0807834E-1,2.595174E-1,1.7521152E0,-1.3156794E0,-3.817724E-2,3.9834058E-1,-2.2564526E0,-2.1036627E0,1.3678086E-1,4.7699666E-1,1.995669E0,4.2379254E-1,3.384272E0,-2.0258677E0,-3.7088192E-1,1.5049691E0,-1.3436655E0,2.630967E-1,1.4133502E0,3.6675912E-1,-3.3270917E0,-1.1721215E0,3.8457724E-1,-2.451514E0,7.802311E-1,-5.230414E-1,7.1968794E-1,1.403851E0,4.3675622E-1,-7.2687846E-1,5.7571554E-1,-2.4788186E-1,-7.829499E-1,-6.2748593E-1,6.469592E-1,-4.7110915E-1,1.1169236E-2,6.796987E-1,-1.1504414E-1,5.7303693E-2,1.2809484E0,-1.4228994E0,-3.2721764E-1,-7.6184314E-1,2.0114033E-1,-3.106808E-1,5.169153E-1,6.8387455E-1,2.1932922E-2,9.836929E-2,8.183488E-1,2.5706774E-1,-3.323025E-1,1.514784E0,-4.0268776E-1,-2.289871E-2,-9.2006075E-1,-5.899674E-2,-4.1650447E-1,-5.390201E-1,7.7638626E-1,6.129153E-1,-4.6084008E-1,-1.0491772E0,1.0936413E-1,4.7278267E-1,-2.9540193E-1,-4.271822E-2,-1.0741851E0,2.2221933E-1,-6.372438E-1,6.3453424E-1,-6.716507E-3,-9.058398E-1,-9.874251E-2,-4.3112585E-1,8.797574E-2,-4.071805E-1,2.8409204E-3,1.6846936E-2,8.593754E-1],"categories":[],"categories_nodes":[],"categories_segments":[],"categories_sizes":[],"default_left":[0,0,0,0,0,0,0,0,0,0,0,0,0,0,0,0,0,0,0,0,0,0,0,0,0,0,0,0,0,0,0,0,0,0,0,0,0,0,0,0,0,0,0,0,0,0,0,0,0,0,0,0,0,0,0,0,0,0,0,0,0,0,0,0,0,0,0,0,0,0,0,0,0,0,0,0,0,0,0,0,0,0,0,0,0,0,0,0,0,0,0,0,0,0,0,0,0,0,0,0,0,0,0,0,0,0,0,0,0,0,0,0,0],"id":13,"left_children":[1,3,5,7,9,11,13,15,17,19,21,23,25,27,29,31,33,35,37,39,41,43,45,47,49,51,53,55,57,59,61,63,65,-1,-1,67,69,71,73,75,77,79,81,83,85,87,89,91,93,95,97,-1,99,101,103,105,-1,107,-1,-1,-1,109,111,-1,-1,-1,-1,-1,-1,-1,-1,-1,-1,-1,-1,-1,-1,-1,-1,-1,-1,-1,-1,-1,-1,-1,-1,-1,-1,-1,-1,-1,-1,-1,-1,-1,-1,-1,-1,-1,-1,-1,-1,-1,-1,-1,-1,-1,-1,-1,-1,-1,-1],"loss_changes":[5.118288E2,3.0526733E2,4.66149E2,2.1715259E2,2.4181198E2,2.7625635E2,1.4898941E2,1.8062384E2,1.877639E2,2.2134506E2,2.4309059E2,2.7699677E2,9.712752E1,8.1486206E1,1.24161255E2,5.8817627E1,1.117408E1,1.7690417E2,1.6511197E2,6.822774E1,1.5550616E2,1.5759125E2,1.6558217E2,1.7957126E2,3.0096375E2,2.7948746E1,1.1197316E2,6.800452E1,2.2572624E1,1.5523506E1,1.11648254E2,6.914398E1,4.307995E1,0E0,0E0,1.17555115E2,1.2815256E2,1.8941693E2,7.019116E1,3.9181824E1,4.8277325E1,1.2724043E2,1.3464493E2,1.2299238E2,1.6417291E2,1.3371109E2,1.2966531E2,1.1192069E2,5.8544357E1,1.3059982E2,2.740913E2,0E0,9.986374E0,1.3451242E2,8.878523E1,7.253592E1,0E0,4.898204E0,0E0,0E0,0E0,1.077041E2,1.0924579E2,0E0,0E0,0E0,0E0,0E0,0E0,0E0,0E0,0E0,0E0,0E0,0E0,0E0,0E0,0E0,0E0,0E0,0E0,0E0,0E0,0E0,0E0,0E0,0E0,0E0,0E0,0E0,0E0,0E0,0E0,0E0,0E0,0E0,0E0,0E0,0E0,0E0,0E0,0E0,0E0,0E0,0E0,0E0,0E0,0E0,0E0,0E0,0E0,0E0,0E0],"parents":[2147483647,0,0,1,1,2,2,3,3,4,4,5,5,6,6,7,7,8,8,9,9,10,10,11,11,12,12,13,13,14,14,15,15,16,16,17,17,18,18,19,19,20,20,21,21,22,22,23,23,24,24,25,25,26,26,27,27,28,28,29,29,30,30,31,31,32,32,35,35,36,36,37,37,38,38,39,39,40,40,41,41,42,42,43,43,44,44,45,45,46,46,47,47,48,48,49,49,50,50,52,52,53,53,54,54,55,55,57,57,61,61,62,62],"right_children":[2,4,6,8,10,12,14,16,18,20,22,24,26,28,30,32,34,36,38,40,42,44,46,48,50,52,54,56,58,60,62,64,66,-1,-1,68,70,72,74,76,78,80,82,84,86,88,90,92,94,96,98,-1,100,102,104,106,-1,108,-1,-1,-1,110,112,-1,-1,-1,-1,-1,-1,-1,-1,-1,-1,-1,-1,-1,-1,-1,-1,-1,-1,-1,-1,-1,-1,-1,-1,-1,-1,-1,-1,-1,-1,-1,-1,-1,-1,-1,-1,-1,-1,-1,-1,-1,-1,-1,-1,-1,-1,-1,-1,-1,-1],"split_conditions":[3.7280408E-1,-1.0401048E-2,6E0,-1.1436123E0,1E0,5E0,-1.0451663E0,1.8050119E0,5.3058565E-1,2E0,-9.391949E-1,1E0,-1.5560939E0,1.3575026E0,-1.7432092E0,1.4819435E0,-2.0093813E0,4.8963588E-1,1.0587603E0,-1.6445061E-2,2.331808E-1,1.2139469E0,-1.5090911E0,-6.3900226E-1,-4.4817376E-1,-1.3370289E0,-5.393128E-1,1.9523275E0,1E0,-3.9265916E-2,6.507945E-1,-3.6636665E-1,-6.85844E-1,2.595174E-1,1.7521152E0,1.001086E0,-1.1369375E0,1.9053159E0,-7.9353565E-1,1.2601559E0,6.401235E-1,-1.0075262E0,-6.063735E-1,7.0464104E-1,7.7749944E-1,-2.8710148E-1,1.3575026E0,2E0,-1.9323874E0,-1.8552107E0,1.5645087E0,3.6675912E-1,-1.8433223E0,-9.003448E-1,-9.812799E-1,1.1429176E0,7.802311E-1,-1.3445221E0,7.1968794E-1,1.403851E0,4.3675622E-1,8.587846E-2,2.7794935E-2,-2.4788186E-1,-7.829499E-1,-6.2748593E-1,6.469592E-1,-4.7110915E-1,1.1169236E-2,6.796987E-1,-1.1504414E-1,5.7303693E-2,1.2809484E0,-1.4228994E0,-3.2721764E-1,-7.6184314E-1,2.0114033E-1,-3.106808E-1,5.169153E-1,6.8387455E-1,2.1932922E-2,9.836929E-2,8.183488E-1,2.5706774E-1,-3.323025E-1,1.514784E0,-4.0268776E-1,-2.289871E-2,-9.2006075E-1,-5.899674E-2,-4.1650447E-1,-5.390201E-1,7.7638626E-1,6.129153E-1,-4.6084008E-1,-1.0491772E0,1.0936413E-1,4.7278267E-1,-2.9540193E-1,-4.271822E-2,-1.0741851E0,2.2221933E-1,-6.372438E-1,6.3453424E-1,-6.716507E-3,-9.058398E-1,-9.874251E-2,-4.3112585E-1,8.797574E-2,-4.071805E-1,2.8409204E-3,1.6846936E-2,8.593754E-1],"split_indices":[10,11,7,0,6,4,14,17,18,4,19,4,24,22,2,5,1,13,5,27,13,14,13,1,18,13,26,24,6,28,2,25,29,0,0,17,21,16,14,14,30,24,3,5,31,19,22,7,5,13,23,0,1,30,21,15,0,0,0,0,0,15,25,0,0,0,0,0,0,0,0,0,0,0,0,0,0,0,0,0,0,0,0,0,0,0,0,0,0,0,0,0,0,0,0,0,0,0,0,0,0,0,0,0,0,0,0,0,0,0,0,0,0],"split_type":[0,0,0,0,0,0,0,0,0,0,0,0,0,0,0,0,0,0,0,0,0,0,0,0,0,0,0,0,0,0,0,0,0,0,0,0,0,0,0,0,0,0,0,0,0,0,0,0,0,0,0,0,0,0,0,0,0,0,0,0,0,0,0,0,0,0,0,0,0,0,0,0,0,0,0,0,0,0,0,0,0,0,0,0,0,0,0,0,0,0,0,0,0,0,0,0,0,0,0,0,0,0,0,0,0,0,0,0,0,0,0,0,0],"sum_hessian":[4E3,2.24E3,1.76E3,9.03E2,1.337E3,1.359E3,4.01E2,1.43E2,7.6E2,3.38E2,9.99E2,1.149E3,2.1E2,7.1E1,3.3E2,1.4E2,3E0,4.99E2,2.61E2,5.4E1,2.84E2,2.02E2,7.97E2,1.13E2,1.036E3,1.3E1,1.97E2,6.2E1,9E0,8E0,3.22E2,1.32E2,8E0,1E0,2E0,3.4E2,1.59E2,2.36E2,2.5E1,3E1,2.4E1,1.74E2,1.1E2,1.83E2,1.9E1,6.5E1,7.32E2,2.9E1,8.4E1,3.38E2,6.98E2,1E0,1.2E1,7.2E1,1.25E2,6E1,2E0,5E0,4E0,4E0,4E0,2.31E2,9.1E1,2.9E1,1.03E2,3E0,5E0,2.86E2,5.4E1,2E1,1.39E2,2.25E2,1.1E1,7E0,1.8E1,2.6E1,4E0,1.4E1,1E1,3.1E1,1.43E2,3.4E1,7.6E1,1.43E2,4E1,1.4E1,5E0,2.3E1,4.2E1,6.26E2,1.06E2,7E0,2.2E1,4E0,8E1,8E0,3.3E2,6.54E2,4.4E1,1E0,1.1E1,2.4E1,4.8E1,2.3E1,1.02E2,4.7E1,1.3E1,2E0,3E0,1.24E2,1.07E2,7.5E1,1.6E1],"tree_param":{"num_deleted":"0","num_feature":"33","num_nodes":"113","size_leaf_vector":"1"}},{"base_weights":[1.511722E-3,-4.999362E-1,2.0272245E-1,-6.309E-1,8.7625426E-1,4.2858753E-1,-3.0493435E-1,-1.6947211E0,-4.6074387E-1,3.1847486E0,1.8431032E-1,8.005144E-2,8.934821E-1,1.5992727E0,-3.8335317E-1,1.0889199E0,-1.795275E0,-2.0913185E-1,-1.2861372E0,2.2700386E-1,5.0699415E0,1.5764254E0,-7.1860385E-1,-1.1495639E0,2.3950247E-1,4.3234807E-1,1.5935034E0,-6.2233436E-1,2.0085106E0,-6.866137E-1,1.1228387E-1,-2.674528E-1,-2.103752E0,-5.197874E-1,6.297589E-1,-2.285705E0,-6.7059505E-1,1.1650999E0,-7.0507604E-1,1.9697952E-1,6.381024E0,2.386584E-1,3.4103599E0,-3.0614054E0,2.3904836E-1,-1.6800835E0,2.8235096E-1,-4.6861845E-1,5.216267E-1,5.778742E-2,1.4992707E0,2.302996E-1,2.1538548E0,7.452669E-1,3.5794475E0,-8.6845356E-1,1.2257721E0,-1.2372328E0,4.3885028E-1,6.010193E-1,-4.361806E-1,-8.96544E-1,-3.7693247E-1,-4.4627073E-1,-7.53012E-2,-5.758372E-1,2.585653E-1,-1.659029E0,-5.987034E-1,-9.857952E-2,-8.8943183E-1,1.522729E-1,8.651648E-1,2.6514933E-1,-9.7974405E-2,2.0971277E0,7.277433E-1,6.366167E-1,-2.3815107E-1,1.2617419E0,-1.9291916E-1,-1.2861024E0,-2.1383038E-1,7.142978E-1,-2.1389069E-1,-6.466294E-1,2.4049802E-1,-3.8074723E-1,3.9820907E-1,3.0624145E-1,-2.531418E-1,3.0260125E-1,3.1113422E-2,2.1465555E-1,-1.8962401E-1,3.7140563E-1,1.8074838E0,3.1889653E-1,-2.775262E-1,1.3349694E0,5.287624E-1,5.534943E-1,-6.667518E-2,